<?xml version="1.0"?>
<opencv_storage>
<opencv_ml_ann_mlp>
  <format>3</format>
  <layer_sizes>
    960 50 50 50 11</layer_sizes>
  <activation_function>SIGMOID_SYM</activation_function>
  <f_param1>1.</f_param1>
  <f_param2>1.</f_param2>
  <min_val>-9.4999999999999996e-01</min_val>
  <max_val>9.4999999999999996e-01</max_val>
  <min_val1>-9.7999999999999998e-01</min_val1>
  <max_val1>9.7999999999999998e-01</max_val1>
  <training_params>
    <train_method>BACKPROP</train_method>
    <dw_scale>1.0000000000000000e-03</dw_scale>
    <moment_scale>1.0000000000000001e-01</moment_scale>
    <term_criteria>
      <iterations>10000</iterations></term_criteria></training_params>
  <input_scale>
    8.3002316389455821e-03 -1.4046255632633819e+00
    9.3577844549224201e-03 -1.8439088914585768e+00
    1.2147725269407212e-02 -2.7315816776253401e+00
    1.4686219698294404e-02 -3.4556007394645900e+00
    1.9797940651076228e-02 -4.8419463487779835e+00
    2.0949302913588052e-02 -5.1478150704935004e+00
    2.4076867819785921e-02 -5.9721576223896253e+00
    4.1317996617382849e-02 -1.0440306508910512e+01
    2.4076867819785921e-02 -5.9721576223896253e+00
    1.3345852320263033e-02 -3.0783421635988528e+00
    1.0484702052820550e-02 -2.2239482786130500e+00
    1.0484702052820550e-02 -2.2239482786130500e+00
    1.0484702052820550e-02 -2.2239482786130500e+00
    1.0374209358201375e-02 -2.1884866196096628e+00
    1.0374209358201375e-02 -2.1884866196096628e+00
    9.8892109124136124e-03 -2.0288615205990381e+00
    9.8039215686274508e-03 -2. 9.8892109124136124e-03
    -2.0288615205990381e+00 9.8039215686274508e-03 -2.
    9.4950587937077096e-03 -1.8929694486000916e+00
    9.1123748441428176e-03 -1.7533037597843886e+00
    9.0025711592416728e-03 -1.7113069358158490e+00
    8.8520438488639639e-03 -1.6519120918868639e+00
    8.8520438488639639e-03 -1.6519120918868639e+00
    8.8520438488639639e-03 -1.6519120918868639e+00
    8.6748584986593175e-03 -1.5786270908810263e+00
    8.5952788945159158e-03 -1.5442199922988253e+00
    8.4521944803585321e-03 -1.4793261293918423e+00
    8.8053552845146939e-03 -1.6329931618554525e+00
    8.7603008413572880e-03 -1.6144836255128692e+00
    8.3880341865632500e-03 -1.4486516314475941e+00
    7.9385130972237285e-03 -1.1685852120617748e+00
    9.0564748108176597e-03 -1.7320508075688774e+00
    1.0167548487649700e-02 -2.1213203435596419e+00
    1.2816972995824715e-02 -2.9266392656602482e+00
    1.9797940651076228e-02 -4.8419463487779835e+00
    2.2343112830119083e-02 -5.5162098789450820e+00
    2.9351184281715705e-02 -7.3484692283495505e+00 1. -255. 1. -255. 1.
    -255. 1. -255. 1. -255. 1. -255. 3.3813646346532729e-02
    -8.5049005481154030e+00 2.0949302913588052e-02
    -5.1478150704935004e+00 1.7268722469176080e-02
    -4.1633319989322697e+00 1.3071895424836602e-02 -3.
    1.3071895424836602e-02 -3. 1.0982588894337331e-02
    -2.3804761428476167e+00 1.0848921574718484e-02
    -2.3389288649495348e+00 1.0848921574718484e-02
    -2.3389288649495348e+00 1.0848921574718484e-02
    -2.3389288649495348e+00 1.0600402076495872e-02
    -2.2607766610417559e+00 1.0600402076495872e-02
    -2.2607766610417559e+00 1.0600402076495872e-02
    -2.2607766610417559e+00 1.0600402076495872e-02
    -2.2607766610417559e+00 1.0600402076495872e-02
    -2.2607766610417559e+00 1.0600402076495872e-02
    -2.2607766610417559e+00 1.0484702052820550e-02
    -2.2239482786130500e+00 1.0484702052820550e-02
    -2.2239482786130500e+00 1.0484702052820550e-02
    -2.2239482786130500e+00 1.0374209358201375e-02
    -2.1884866196096628e+00 1.0167548487649700e-02
    -2.1213203435596419e+00 9.2929598336700479e-03
    -1.8203641092364122e+00 1.0167548487649700e-02
    -2.1213203435596419e+00 1.2816972995824715e-02
    -2.9266392656602482e+00 2.2343112830119083e-02
    -5.5162098789450820e+00 2.6313478802488705e-02
    -6.5574385243020155e+00 3.3813646346532729e-02
    -8.5049005481154030e+00 1. -255. 1. -255. 1. -255. 1. -255. 1. -255.
    1. -255. 1. -255. 1. -255. 1. -255. 2.6313478802488705e-02
    -6.5574385243020155e+00 2.4076867819785921e-02
    -5.9721576223896253e+00 2.4076867819785921e-02
    -5.9721576223896253e+00 2.4076867819785921e-02
    -5.9721576223896253e+00 1.7268722469176080e-02
    -4.1633319989322697e+00 1.3641197749745955e-02
    -3.1622776601683804e+00 1.3071895424836602e-02 -3.
    1.3071895424836602e-02 -3. 1.3071895424836602e-02 -3.
    1.2816972995824715e-02 -2.9266392656602482e+00
    1.2816972995824715e-02 -2.9266392656602482e+00
    1.0721674393746196e-02 -2.2990681342044401e+00
    1.0721674393746196e-02 -2.2990681342044401e+00
    1.0721674393746196e-02 -2.2990681342044401e+00
    1.0721674393746196e-02 -2.2990681342044401e+00
    1.0721674393746196e-02 -2.2990681342044401e+00
    1.0484702052820550e-02 -2.2239482786130500e+00
    9.4950587937077096e-03 -1.8929694486000916e+00
    1.0374209358201375e-02 -2.1884866196096628e+00
    1.4307724303673037e-02 -3.3499585403736276e+00
    2.2343112830119083e-02 -5.5162098789450820e+00
    2.6313478802488705e-02 -6.5574385243020155e+00
    5.8298911077602857e-02 -1.4798648586948779e+01 1. -255. 1. -255. 1.
    -255. 1. -255. 1. -255. 1. -255. 1. -255. 1. -255.
    4.1317996617382849e-02 -1.0440306508910512e+01
    2.9351184281715705e-02 -7.3484692283495505e+00
    1.4686219698294404e-02 -3.4556007394645900e+00
    1.3071895424836602e-02 -3. 1.4686219698294404e-02
    -3.4556007394645900e+00 2.4076867819785921e-02
    -5.9721576223896253e+00 2.4076867819785921e-02
    -5.9721576223896253e+00 2.4076867819785921e-02
    -5.9721576223896253e+00 2.4076867819785921e-02
    -5.9721576223896253e+00 2.4076867819785921e-02
    -5.9721576223896253e+00 1.7268722469176080e-02
    -4.1633319989322697e+00 1.6631279089225206e-02
    -3.9903730305670568e+00 1.2816972995824715e-02
    -2.9266392656602482e+00 1.2816972995824715e-02
    -2.9266392656602482e+00 1.2816972995824715e-02
    -2.9266392656602482e+00 1.2816972995824715e-02
    -2.9266392656602482e+00 1.2816972995824715e-02
    -2.9266392656602482e+00 1.2816972995824715e-02
    -2.9266392656602482e+00 9.4251095147569776e-03
    -1.8680995472317183e+00 1.0600402076495872e-02
    -2.2607766610417559e+00 1.2816972995824715e-02
    -2.9266392656602482e+00 2.2343112830119083e-02
    -5.5162098789450820e+00 2.9351184281715705e-02
    -7.3484692283495505e+00 1. -255. 1. -255. 1. -255. 1. -255. 1. -255.
    1. -255. 1. -255. 5.8298911077602857e-02 -1.4798648586948779e+01
    2.9351184281715705e-02 -7.3484692283495505e+00
    1.3071895424836602e-02 -3. 1.2816972995824715e-02
    -2.9266392656602482e+00 1.2816972995824715e-02
    -2.9266392656602482e+00 1.2816972995824715e-02
    -2.9266392656602482e+00 1.3071895424836602e-02 -3.
    1.3071895424836602e-02 -3. 1.5558221147202763e-02
    -3.6968455021364748e+00 2.6313478802488705e-02
    -6.5574385243020155e+00 2.4076867819785921e-02
    -5.9721576223896253e+00 2.4076867819785921e-02
    -5.9721576223896253e+00 2.4076867819785921e-02
    -5.9721576223896253e+00 2.4076867819785921e-02
    -5.9721576223896253e+00 2.4076867819785921e-02
    -5.9721576223896253e+00 2.4076867819785921e-02
    -5.9721576223896253e+00 1.9797940651076228e-02
    -4.8419463487779835e+00 1.6631279089225206e-02
    -3.9903730305670568e+00 1.6631279089225206e-02
    -3.9903730305670568e+00 1.3960715317964081e-02
    -3.2525293801011315e+00 9.4251095147569776e-03
    -1.8680995472317183e+00 1.0721674393746196e-02
    -2.2990681342044401e+00 1.2816972995824715e-02
    -2.9266392656602482e+00 2.6313478802488705e-02
    -6.5574385243020155e+00 2.9351184281715705e-02
    -7.3484692283495505e+00 1. -255. 1. -255. 1. -255. 1. -255. 1. -255.
    1. -255. 5.8298911077602857e-02 -1.4798648586948779e+01
    4.1317996617382849e-02 -1.0440306508910512e+01
    1.3071895424836602e-02 -3. 1.2579078977878133e-02
    -2.8577380332470415e+00 1.2579078977878133e-02
    -2.8577380332470415e+00 1.2816972995824715e-02
    -2.9266392656602482e+00 1.3071895424836602e-02 -3.
    1.3071895424836602e-02 -3. 1.3071895424836602e-02 -3.
    1.3345852320263033e-02 -3.0783421635988528e+00
    2.9351184281715705e-02 -7.3484692283495505e+00
    4.1317996617382849e-02 -1.0440306508910512e+01
    2.6313478802488705e-02 -6.5574385243020155e+00
    2.6313478802488705e-02 -6.5574385243020155e+00
    2.4076867819785921e-02 -5.9721576223896253e+00
    2.4076867819785921e-02 -5.9721576223896253e+00
    2.4076867819785921e-02 -5.9721576223896253e+00
    2.4076867819785921e-02 -5.9721576223896253e+00
    2.4076867819785921e-02 -5.9721576223896253e+00
    2.4076867819785921e-02 -5.9721576223896253e+00
    2.0949302913588052e-02 -5.1478150704935004e+00
    9.5677654420527041e-03 -1.9185544203461593e+00
    1.1951487560989823e-02 -2.6736020923368824e+00
    1.2816972995824715e-02 -2.9266392656602482e+00
    2.4076867819785921e-02 -5.9721576223896253e+00 1. -255. 1. -255. 1.
    -255. 1. -255. 1. -255. 1. -255. 1. -255. 4.1317996617382849e-02
    -1.0440306508910512e+01 2.0949302913588052e-02
    -5.1478150704935004e+00 1.2816972995824715e-02
    -2.9266392656602482e+00 1.2816972995824715e-02
    -2.9266392656602482e+00 1.3071895424836602e-02 -3.
    4.1317996617382849e-02 -1.0440306508910512e+01
    3.3813646346532729e-02 -8.5049005481154030e+00
    1.7993390891808767e-02 -4.3588989435406740e+00
    1.3071895424836602e-02 -3. 1.3345852320263033e-02
    -3.0783421635988528e+00 1.3960715317964081e-02
    -3.2525293801011315e+00 1. -255. 1. -255. 5.8298911077602857e-02
    -1.4798648586948779e+01 2.9351184281715705e-02
    -7.3484692283495505e+00 2.6313478802488705e-02
    -6.5574385243020155e+00 2.6313478802488705e-02
    -6.5574385243020155e+00 2.4076867819785921e-02
    -5.9721576223896253e+00 2.4076867819785921e-02
    -5.9721576223896253e+00 2.4076867819785921e-02
    -5.9721576223896253e+00 2.4076867819785921e-02
    -5.9721576223896253e+00 9.4950587937077096e-03
    -1.8929694486000916e+00 1.2147725269407212e-02
    -2.7315816776253401e+00 1.7993390891808767e-02
    -4.3588989435406740e+00 2.4076867819785921e-02
    -5.9721576223896253e+00 1. -255. 1. -255. 1. -255. 1. -255. 1. -255.
    5.8298911077602857e-02 -1.4798648586948779e+01
    2.9351184281715705e-02 -7.3484692283495505e+00
    1.8826641510556207e-02 -4.5825756949558398e+00
    1.1592225421859868e-02 -2.5663606325985673e+00
    1.0982588894337331e-02 -2.3804761428476167e+00
    1.0848921574718484e-02 -2.3389288649495348e+00
    1.0484702052820550e-02 -2.2239482786130500e+00
    1.3641197749745955e-02 -3.1622776601683804e+00
    1.7268722469176080e-02 -4.1633319989322697e+00
    1.7268722469176080e-02 -4.1633319989322697e+00
    1.2579078977878133e-02 -2.8577380332470415e+00
    1.3071895424836602e-02 -3. 1.3641197749745955e-02
    -3.1622776601683804e+00 4.1317996617382849e-02
    -1.0440306508910512e+01 1. -255. 1. -255. 1. -255. 1. -255.
    5.8298911077602857e-02 -1.4798648586948779e+01
    2.6313478802488705e-02 -6.5574385243020155e+00
    2.6313478802488705e-02 -6.5574385243020155e+00
    2.6313478802488705e-02 -6.5574385243020155e+00
    2.4076867819785921e-02 -5.9721576223896253e+00
    9.4950587937077096e-03 -1.8929694486000916e+00
    1.2816972995824715e-02 -2.9266392656602482e+00
    2.2343112830119083e-02 -5.5162098789450820e+00
    2.9351184281715705e-02 -7.3484692283495505e+00 1. -255. 1. -255. 1.
    -255. 1. -255. 5.8298911077602857e-02 -1.4798648586948779e+01
    2.9351184281715705e-02 -7.3484692283495505e+00
    1.8826641510556207e-02 -4.5825756949558398e+00
    1.7268722469176080e-02 -4.1633319989322697e+00
    1.0600402076495872e-02 -2.2607766610417559e+00
    9.2929598336700479e-03 -1.8203641092364122e+00
    9.1123748441428176e-03 -1.7533037597843886e+00
    9.9781000444146561e-03 -2.0586634591635509e+00
    1.0848921574718484e-02 -2.3389288649495348e+00
    1.1271215448844216e-02 -2.4691646752593046e+00
    1.1592225421859868e-02 -2.5663606325985673e+00
    1.0268592259604380e-02 -2.1543039806456368e+00
    1.3071895424836602e-02 -3. 1.2579078977878133e-02
    -2.8577380332470415e+00 2.2343112830119083e-02
    -5.5162098789450820e+00 3.3813646346532729e-02
    -8.5049005481154030e+00 1. -255. 1. -255. 1. -255. 1. -255. 1. -255.
    5.8298911077602857e-02 -1.4798648586948779e+01
    2.9351184281715705e-02 -7.3484692283495505e+00
    2.4076867819785921e-02 -5.9721576223896253e+00
    9.5677654420527041e-03 -1.9185544203461593e+00
    1.2356491944209822e-02 -2.7928480087537881e+00
    1.9797940651076228e-02 -4.8419463487779835e+00
    4.1317996617382849e-02 -1.0440306508910512e+01
    4.1317996617382849e-02 -1.0440306508910512e+01
    4.1317996617382849e-02 -1.0440306508910512e+01
    4.1317996617382849e-02 -1.0440306508910512e+01
    3.3813646346532729e-02 -8.5049005481154030e+00
    1.9797940651076228e-02 -4.8419463487779835e+00
    1.3345852320263033e-02 -3.0783421635988528e+00
    1.0721674393746196e-02 -2.2990681342044401e+00
    9.7220358713868589e-03 -1.9720265943665389e+00
    8.0048684404679018e-03 -1.2247448713915889e+00
    7.8548308313936537e-03 -9.4686415294799864e-01
    7.8639620834712737e-03 -9.2973478995949022e-01
    7.8639620834712737e-03 -9.2973478995949022e-01
    7.8434613715727564e-03 -9.9095004010393073e-01
    7.9385130972237285e-03 -1.1685852120617748e+00
    8.3284158682289579e-03 -1.4190484946389204e+00
    8.3576733737386385e-03 -1.4337208778404373e+00
    9.0564748108176597e-03 -1.7320508075688774e+00
    1.0268592259604380e-02 -2.1543039806456368e+00
    1.1951487560989823e-02 -2.6736020923368824e+00
    1.4307724303673037e-02 -3.3499585403736276e+00
    1.5101059729713850e-02 -3.5707142142714297e+00
    1.6065153235220491e-02 -3.8359204520278745e+00
    3.3813646346532729e-02 -8.5049005481154030e+00
    4.1317996617382849e-02 -1.0440306508910512e+01
    4.1317996617382849e-02 -1.0440306508910512e+01
    5.8298911077602857e-02 -1.4798648586948779e+01 1. -255.
    5.8298911077602857e-02 -1.4798648586948779e+01
    9.5677654420527041e-03 -1.9185544203461593e+00
    1.2356491944209822e-02 -2.7928480087537881e+00
    2.4076867819785921e-02 -5.9721576223896253e+00
    4.1317996617382849e-02 -1.0440306508910512e+01
    4.1317996617382849e-02 -1.0440306508910512e+01
    4.1317996617382849e-02 -1.0440306508910512e+01
    3.3813646346532729e-02 -8.5049005481154030e+00
    1.9797940651076228e-02 -4.8419463487779835e+00
    1.3960715317964081e-02 -3.2525293801011315e+00
    1.3641197749745955e-02 -3.1622776601683804e+00
    1.0982588894337331e-02 -2.3804761428476167e+00
    8.2218418566424971e-03 -1.3627702877384940e+00
    8.1521749080421570e-03 -7.5592894601845462e-01
    8.2469708254123506e-03 -7.2648315725677892e-01
    8.2469708254123506e-03 -7.2648315725677892e-01
    8.1976812347432891e-03 -7.4114490799565458e-01
    8.1744661242894364e-03 -7.4852100033550317e-01
    8.0718559551140358e-03 -7.8590524799337569e-01
    7.9900932752550776e-03 -8.2425075855415442e-01
    7.8984900890565462e-03 -1.1260733711057207e+00
    8.6748584986593175e-03 -1.5786270908810263e+00
    9.9781000444146561e-03 -2.0586634591635509e+00
    1.1123170302790907e-02 -2.4238399287081638e+00
    1.2579078977878133e-02 -2.8577380332470415e+00
    1.2816972995824715e-02 -2.9266392656602482e+00
    1.2816972995824715e-02 -2.9266392656602482e+00
    1.4307724303673037e-02 -3.3499585403736276e+00
    2.6313478802488705e-02 -6.5574385243020155e+00
    2.9351184281715705e-02 -7.3484692283495505e+00
    2.9351184281715705e-02 -7.3484692283495505e+00
    5.8298911077602857e-02 -1.4798648586948779e+01
    2.6313478802488705e-02 -6.5574385243020155e+00
    9.8039215686274508e-03 -2. 1.2356491944209822e-02
    -2.7928480087537881e+00 2.4076867819785921e-02
    -5.9721576223896253e+00 4.1317996617382849e-02
    -1.0440306508910512e+01 4.1317996617382849e-02
    -1.0440306508910512e+01 3.3813646346532729e-02
    -8.5049005481154030e+00 1.5558221147202763e-02
    -3.6968455021364748e+00 1.3960715317964081e-02
    -3.2525293801011315e+00 1.3345852320263033e-02
    -3.0783421635988528e+00 1.2816972995824715e-02
    -2.9266392656602482e+00 1.1123170302790907e-02
    -2.4238399287081638e+00 7.8590663835113265e-03
    -9.3826535710420456e-01 8.3880341865632483e-03
    -6.9029708612603458e-01 8.7168206854014735e-03
    -6.2642243198271497e-01 8.0048684404679018e-03
    -8.1649658092772603e-01 7.8757491928847425e-03
    -9.1287092917527690e-01 8.1102834156984299e-03
    -7.7084557373751894e-01 8.3284158682289579e-03
    -7.0469755175946380e-01 8.4521944803585321e-03
    -6.7598346309958357e-01 8.2469708254123506e-03
    -7.2648315725677892e-01 9.0025711592416728e-03
    -1.7113069358158490e+00 1.0167548487649700e-02
    -2.1213203435596419e+00 1.1427337982521945e-02
    -2.5166114784235827e+00 1.3345852320263033e-02
    -3.0783421635988528e+00 1.2816972995824715e-02
    -2.9266392656602482e+00 1.2816972995824715e-02
    -2.9266392656602482e+00 1.2816972995824715e-02
    -2.9266392656602482e+00 2.9351184281715705e-02
    -7.3484692283495505e+00 2.9351184281715705e-02
    -7.3484692283495505e+00 2.9351184281715705e-02
    -7.3484692283495505e+00 3.3813646346532729e-02
    -8.5049005481154030e+00 2.0949302913588052e-02
    -5.1478150704935004e+00 9.8892109124136124e-03
    -2.0288615205990381e+00 1.7268722469176080e-02
    -4.1633319989322697e+00 1. -255. 1. -255. 5.8298911077602857e-02
    -1.4798648586948779e+01 3.3813646346532729e-02
    -8.5049005481154030e+00 1.4686219698294404e-02
    -3.4556007394645900e+00 1.3641197749745955e-02
    -3.1622776601683804e+00 1.3641197749745955e-02
    -3.1622776601683804e+00 1.3071895424836602e-02 -3.
    9.3577844549224201e-03 -1.8439088914585768e+00
    7.8434613715727564e-03 -9.9095004010393073e-01
    8.3880341865632483e-03 -6.9029708612603458e-01
    8.1744661242894364e-03 -7.4852100033550317e-01
    7.9900932752550793e-03 -1.2132230266358905e+00
    8.9004301522769974e-03 -1.6712580435934672e+00
    7.9628209257815181e-03 -1.1906227016071957e+00
    8.0204189345144308e-03 -8.0878633664637567e-01
    8.1744661242894364e-03 -7.4852100033550317e-01
    8.0718559551140358e-03 -7.8590524799337569e-01
    9.4251095147569776e-03 -1.8680995472317183e+00
    1.2147725269407212e-02 -2.7315816776253401e+00
    1.3345852320263033e-02 -3.0783421635988528e+00
    2.2343112830119083e-02 -5.5162098789450820e+00
    1.3345852320263033e-02 -3.0783421635988528e+00
    1.3641197749745955e-02 -3.1622776601683804e+00
    1.3960715317964081e-02 -3.2525293801011315e+00
    1.6065153235220491e-02 -3.8359204520278745e+00
    4.1317996617382849e-02 -1.0440306508910512e+01
    3.3813646346532729e-02 -8.5049005481154030e+00
    3.3813646346532729e-02 -8.5049005481154030e+00
    1.4686219698294404e-02 -3.4556007394645900e+00
    9.9781000444146561e-03 -2.0586634591635509e+00
    2.6313478802488705e-02 -6.5574385243020155e+00 1. -255. 1. -255.
    5.8298911077602857e-02 -1.4798648586948779e+01
    3.3813646346532729e-02 -8.5049005481154030e+00
    1.4307724303673037e-02 -3.3499585403736276e+00
    1.5101059729713850e-02 -3.5707142142714297e+00
    1.3071895424836602e-02 -3. 1.3071895424836602e-02 -3.
    8.8053552845146939e-03 -1.6329931618554525e+00
    7.8512522464724548e-03 -1.0465362369445670e+00
    8.1307871254724887e-03 -7.6337003671197390e-01
    7.9170919923958576e-03 -8.7177978870813477e-01
    8.1976812347432891e-03 -1.3492638068638840e+00
    9.2929598336700479e-03 -1.8203641092364122e+00
    8.7168206854014735e-03 -1.5963668427946607e+00
    7.9503015573719037e-03 -8.4779124789065852e-01
    8.0204189345144308e-03 -8.0878633664637567e-01
    7.9385130972237268e-03 -8.5573562773027578e-01
    9.4950587937077096e-03 -1.8929694486000916e+00
    1.2816972995824715e-02 -2.9266392656602482e+00
    1.5101059729713850e-02 -3.5707142142714297e+00
    3.3813646346532729e-02 -8.5049005481154030e+00
    1.3960715317964081e-02 -3.2525293801011315e+00
    1.4307724303673037e-02 -3.3499585403736276e+00
    1.4686219698294404e-02 -3.4556007394645900e+00
    1.4307724303673037e-02 -3.3499585403736276e+00
    4.1317996617382849e-02 -1.0440306508910512e+01
    3.3813646346532729e-02 -8.5049005481154030e+00
    2.9351184281715705e-02 -7.3484692283495505e+00
    1.1766650944097620e-02 -2.6186146828319066e+00
    1.0167548487649700e-02 -2.1213203435596419e+00
    4.1317996617382849e-02 -1.0440306508910512e+01 1. -255. 1. -255.
    5.8298911077602857e-02 -1.4798648586948779e+01
    3.3813646346532729e-02 -8.5049005481154030e+00
    1.7993390891808767e-02 -4.3588989435406740e+00
    2.4076867819785921e-02 -5.9721576223896253e+00
    1.6065153235220491e-02 -3.8359204520278745e+00
    1.3641197749745955e-02 -3.1622776601683804e+00
    9.2929598336700479e-03 -1.8203641092364122e+00
    7.9385130972237285e-03 -1.1685852120617748e+00
    8.0538985225140428e-03 -7.9349204761587211e-01
    7.8512522464724548e-03 -1.0465362369445670e+00
    8.1976812347432891e-03 -1.3492638068638840e+00
    8.9505818903546155e-03 -1.6910497103299527e+00
    8.1307871254724905e-03 -1.3099806802835110e+00
    8.3284158682289579e-03 -7.0469755175946380e-01
    8.2730922609242762e-03 -7.1919495222807628e-01
    8.1307871254724887e-03 -7.6337003671197390e-01
    9.0564748108176597e-03 -1.7320508075688774e+00
    1.2816972995824715e-02 -2.9266392656602482e+00
    1.8826641510556207e-02 -4.5825756949558398e+00
    3.3813646346532729e-02 -8.5049005481154030e+00
    1.5101059729713850e-02 -3.5707142142714297e+00
    1.4686219698294404e-02 -3.4556007394645900e+00
    1.4686219698294404e-02 -3.4556007394645900e+00
    1.4686219698294404e-02 -3.4556007394645900e+00
    4.1317996617382849e-02 -1.0440306508910512e+01
    3.3813646346532729e-02 -8.5049005481154030e+00
    2.6313478802488705e-02 -6.5574385243020155e+00
    1.1271215448844216e-02 -2.4691646752593046e+00
    1.0600402076495872e-02 -2.2607766610417559e+00 1. -255. 1. -255. 1.
    -255. 1. -255. 5.8298911077602857e-02 -1.4798648586948779e+01
    5.8298911077602857e-02 -1.4798648586948779e+01
    2.9351184281715705e-02 -7.3484692283495505e+00
    1.9797940651076228e-02 -4.8419463487779835e+00
    1.3960715317964081e-02 -3.2525293801011315e+00
    9.3577844549224201e-03 -1.8439088914585768e+00
    8.0204189345144308e-03 -1.2364204916548041e+00
    7.8639620834712737e-03 -9.2973478995949022e-01
    7.8695216190426548e-03 -1.0854574251356790e+00
    7.9385130972237285e-03 -1.1685852120617748e+00
    8.0538985225140428e-03 -1.2602520756252087e+00
    7.8434613715727564e-03 -1.0091326096471220e+00
    9.1703588375870761e-03 -5.6335181677267876e-01
    8.2730922609242762e-03 -7.1919495222807628e-01
    8.1307871254724887e-03 -7.6337003671197390e-01
    8.4860629696185980e-03 -1.4950900031928041e+00
    1.2147725269407212e-02 -2.7315816776253401e+00
    1.7993390891808767e-02 -4.3588989435406740e+00
    2.4076867819785921e-02 -5.9721576223896253e+00
    1.6631279089225206e-02 -3.9903730305670568e+00
    1.4307724303673037e-02 -3.3499585403736276e+00
    1.4307724303673037e-02 -3.3499585403736276e+00
    1.4686219698294404e-02 -3.4556007394645900e+00
    4.1317996617382849e-02 -1.0440306508910512e+01
    4.1317996617382849e-02 -1.0440306508910512e+01
    1.9797940651076228e-02 -4.8419463487779835e+00
    1.0268592259604380e-02 -2.1543039806456368e+00
    1.2356491944209822e-02 -2.7928480087537881e+00 1. -255. 1. -255. 1.
    -255. 1. -255. 1. -255. 4.1317996617382849e-02
    -1.0440306508910512e+01 4.1317996617382849e-02
    -1.0440306508910512e+01 2.4076867819785921e-02
    -5.9721576223896253e+00 1.3960715317964081e-02
    -3.2525293801011315e+00 9.8892109124136124e-03
    -2.0288615205990381e+00 7.9628209257815181e-03
    -1.1906227016071957e+00 7.8695216190426548e-03
    -9.2127058772019799e-01 7.8460557523173432e-03
    -9.7308923273626680e-01 8.0718559551140358e-03
    -1.2724180205607034e+00 7.8444339627317533e-03
    -1.0183501544346312e+00 7.9760812529117899e-03
    -8.3205029433784350e-01 8.7168206854014735e-03
    -6.2642243198271497e-01 8.4521944803585321e-03
    -6.7598346309958357e-01 7.8757491928847425e-03
    -9.1287092917527690e-01 8.2218418566424971e-03
    -1.3627702877384940e+00 1.1766650944097620e-02
    -2.6186146828319066e+00 1.8826641510556207e-02
    -4.5825756949558398e+00 2.4076867819785921e-02
    -5.9721576223896253e+00 1.7268722469176080e-02
    -4.1633319989322697e+00 1.3641197749745955e-02
    -3.1622776601683804e+00 1.4307724303673037e-02
    -3.3499585403736276e+00 1.4307724303673037e-02
    -3.3499585403736276e+00 3.3813646346532729e-02
    -8.5049005481154030e+00 4.1317996617382849e-02
    -1.0440306508910512e+01 1.8826641510556207e-02
    -4.5825756949558398e+00 1.0268592259604380e-02
    -2.1543039806456368e+00 1.4307724303673037e-02
    -3.3499585403736276e+00 1. -255. 1. -255. 1. -255. 1. -255.
    4.1317996617382849e-02 -1.0440306508910512e+01
    4.1317996617382849e-02 -1.0440306508910512e+01
    4.1317996617382849e-02 -1.0440306508910512e+01
    1.9797940651076228e-02 -4.8419463487779835e+00
    1.3071895424836602e-02 -3. 9.9781000444146561e-03
    -2.0586634591635509e+00 7.9074424766415984e-03
    -1.1365151414154879e+00 7.8444339627317516e-03
    -9.8198050606196563e-01 7.8460557523173432e-03
    -9.7308923273626680e-01 7.8695216190426548e-03
    -1.0854574251356790e+00 7.8826495314448016e-03
    -9.0453403373329100e-01 8.2469708254123506e-03
    -7.2648315725677892e-01 8.4521944803585321e-03
    -6.7598346309958357e-01 8.0367577109536348e-03
    -8.0111862091460551e-01 7.8548308313936572e-03
    -1.0561177090573837e+00 8.0906454645008584e-03
    -1.2847577241015340e+00 1.1427337982521945e-02
    -2.5166114784235827e+00 1.9797940651076228e-02
    -4.8419463487779835e+00 2.0949302913588052e-02
    -5.1478150704935004e+00 1.7268722469176080e-02
    -4.1633319989322697e+00 1.3641197749745955e-02
    -3.1622776601683804e+00 1.3641197749745955e-02
    -3.1622776601683804e+00 1.4307724303673037e-02
    -3.3499585403736276e+00 3.3813646346532729e-02
    -8.5049005481154030e+00 2.4076867819785921e-02
    -5.9721576223896253e+00 1.6065153235220491e-02
    -3.8359204520278745e+00 1.0167548487649700e-02
    -2.1213203435596419e+00 1.4686219698294404e-02
    -3.4556007394645900e+00 1. -255. 1. -255. 1. -255. 1. -255.
    4.1317996617382849e-02 -1.0440306508910512e+01
    4.1317996617382849e-02 -1.0440306508910512e+01
    4.1317996617382849e-02 -1.0440306508910512e+01
    1.7268722469176080e-02 -4.1633319989322697e+00
    1.2816972995824715e-02 -2.9266392656602482e+00
    1.0268592259604380e-02 -2.1543039806456368e+00
    7.9503015573719055e-03 -1.1795356492391773e+00
    8.0048684404679018e-03 -1.2247448713915889e+00
    7.9900932752550793e-03 -1.2132230266358905e+00
    7.9074424766415984e-03 -1.1365151414154879e+00
    7.9503015573719037e-03 -8.4779124789065852e-01
    7.9760812529117899e-03 -8.3205029433784350e-01
    8.2730922609242762e-03 -7.1919495222807628e-01
    8.7603008413572898e-03 -6.1939308903323931e-01
    7.8460557523173432e-03 -9.7308923273626680e-01
    8.0204189345144308e-03 -1.2364204916548041e+00
    1.1592225421859868e-02 -2.5663606325985673e+00
    2.4076867819785921e-02 -5.9721576223896253e+00
    2.2343112830119083e-02 -5.5162098789450820e+00
    1.7268722469176080e-02 -4.1633319989322697e+00
    1.3641197749745955e-02 -3.1622776601683804e+00
    1.3641197749745955e-02 -3.1622776601683804e+00
    1.3641197749745955e-02 -3.1622776601683804e+00
    3.3813646346532729e-02 -8.5049005481154030e+00
    1.7993390891808767e-02 -4.3588989435406740e+00
    1.4307724303673037e-02 -3.3499585403736276e+00
    1.0070801978266031e-02 -2.0894625286270592e+00
    1.4307724303673037e-02 -3.3499585403736276e+00 1. -255. 1. -255. 1.
    -255. 4.1317996617382849e-02 -1.0440306508910512e+01
    4.1317996617382849e-02 -1.0440306508910512e+01
    4.1317996617382849e-02 -1.0440306508910512e+01
    4.1317996617382849e-02 -1.0440306508910512e+01
    1.6631279089225206e-02 -3.9903730305670568e+00
    1.2579078977878133e-02 -2.8577380332470415e+00
    9.2929598336700479e-03 -1.8203641092364122e+00
    8.0367577109536365e-03 -1.2482545953785715e+00
    8.3880341865632500e-03 -1.4486516314475941e+00
    7.8902278950244015e-03 -1.1157499537009505e+00
    7.8984900890565462e-03 -1.1260733711057207e+00
    7.8434613715727564e-03 -9.9095004010393073e-01
    8.1976812347432891e-03 -7.4114490799565458e-01
    8.5211730201379832e-03 -6.6174655022298834e-01
    8.3284158682289579e-03 -7.0469755175946380e-01
    8.0204189345144308e-03 -8.0878633664637567e-01
    8.0367577109536365e-03 -1.2482545953785715e+00
    1.7268722469176080e-02 -4.1633319989322697e+00
    2.6313478802488705e-02 -6.5574385243020155e+00
    2.2343112830119083e-02 -5.5162098789450820e+00
    1.7268722469176080e-02 -4.1633319989322697e+00
    1.3960715317964081e-02 -3.2525293801011315e+00
    1.3641197749745955e-02 -3.1622776601683804e+00
    1.3641197749745955e-02 -3.1622776601683804e+00
    3.3813646346532729e-02 -8.5049005481154030e+00
    1.7993390891808767e-02 -4.3588989435406740e+00
    1.4307724303673037e-02 -3.3499585403736276e+00
    9.8892109124136124e-03 -2.0288615205990381e+00
    4.1317996617382849e-02 -1.0440306508910512e+01 1. -255. 1. -255. 1.
    -255. 4.1317996617382849e-02 -1.0440306508910512e+01
    4.1317996617382849e-02 -1.0440306508910512e+01
    4.1317996617382849e-02 -1.0440306508910512e+01
    4.1317996617382849e-02 -1.0440306508910512e+01
    1.6631279089225206e-02 -3.9903730305670568e+00
    1.2147725269407212e-02 -2.7315816776253401e+00
    8.2218418566424971e-03 -1.3627702877384940e+00
    7.9900932752550793e-03 -1.2132230266358905e+00
    8.1521749080421570e-03 -1.3228756555322956e+00
    8.3284158682289579e-03 -1.4190484946389204e+00
    7.8639620834712719e-03 -1.0755755413256844e+00
    7.9074424766415984e-03 -1.1365151414154879e+00
    7.8695216190426548e-03 -1.0854574251356790e+00
    8.0718559551140358e-03 -7.8590524799337569e-01
    8.3576733737386402e-03 -6.9748583246291562e-01
    8.1521749080421570e-03 -7.5592894601845462e-01
    8.0048684404679018e-03 -1.2247448713915889e+00
    2.2343112830119083e-02 -5.5162098789450820e+00
    2.6313478802488705e-02 -6.5574385243020155e+00
    2.6313478802488705e-02 -6.5574385243020155e+00
    1.5101059729713850e-02 -3.5707142142714297e+00
    1.3960715317964081e-02 -3.2525293801011315e+00
    1.3641197749745955e-02 -3.1622776601683804e+00
    1.3641197749745955e-02 -3.1622776601683804e+00
    2.4076867819785921e-02 -5.9721576223896253e+00
    1.7993390891808767e-02 -4.3588989435406740e+00
    1.2356491944209822e-02 -2.7928480087537881e+00
    9.8039215686274508e-03 -2. 2.0949302913588052e-02
    -5.1478150704935004e+00 3.3813646346532729e-02
    -8.5049005481154030e+00 1. -255. 1. -255. 4.1317996617382849e-02
    -1.0440306508910512e+01 4.1317996617382849e-02
    -1.0440306508910512e+01 4.1317996617382849e-02
    -1.0440306508910512e+01 4.1317996617382849e-02
    -1.0440306508910512e+01 1.7993390891808767e-02
    -4.3588989435406740e+00 1.4307724303673037e-02
    -3.3499585403736276e+00 8.0204189345144308e-03
    -1.2364204916548041e+00 7.8695216190426548e-03
    -1.0854574251356790e+00 7.8483279485574431e-03
    -1.0370495157480220e+00 8.0718559551140358e-03
    -1.2724180205607034e+00 7.9385130972237285e-03
    -1.1685852120617748e+00 8.1307871254724905e-03
    -1.3099806802835110e+00 7.9274461576727875e-03
    -1.1577674774819393e+00 8.1102834156984299e-03
    -7.7084557373751894e-01 7.9628209257815198e-03
    -8.3989663446709173e-01 7.8460557523173432e-03
    -9.7308923273626680e-01 8.6748584986593175e-03
    -1.5786270908810263e+00 1.9797940651076228e-02
    -4.8419463487779835e+00 2.6313478802488705e-02
    -6.5574385243020155e+00 2.6313478802488705e-02
    -6.5574385243020155e+00 1.3960715317964081e-02
    -3.2525293801011315e+00 1.3960715317964081e-02
    -3.2525293801011315e+00 1.3641197749745955e-02
    -3.1622776601683804e+00 1.3641197749745955e-02
    -3.1622776601683804e+00 1.8826641510556207e-02
    -4.5825756949558398e+00 1.7993390891808767e-02
    -4.3588989435406740e+00 1.1951487560989823e-02
    -2.6736020923368824e+00 9.7220358713868589e-03
    -1.9720265943665389e+00 1.8826641510556207e-02
    -4.5825756949558398e+00 2.2343112830119083e-02
    -5.5162098789450820e+00 2.2343112830119083e-02
    -5.5162098789450820e+00 2.2343112830119083e-02
    -5.5162098789450820e+00 2.9351184281715705e-02
    -7.3484692283495505e+00 4.1317996617382849e-02
    -1.0440306508910512e+01 4.1317996617382849e-02
    -1.0440306508910512e+01 4.1317996617382849e-02
    -1.0440306508910512e+01 1.7268722469176080e-02
    -4.1633319989322697e+00 1.3960715317964081e-02
    -3.2525293801011315e+00 7.9074424766415984e-03
    -1.1365151414154879e+00 7.8512522464724566e-03
    -9.5553308590590924e-01 7.8548308313936572e-03
    -1.0561177090573837e+00 7.9274461576727875e-03
    -1.1577674774819393e+00 8.2469708254123506e-03
    -1.3764944032233706e+00 7.9274461576727875e-03
    -1.1577674774819393e+00 7.9628209257815181e-03
    -1.1906227016071957e+00 7.8460557523173432e-03
    -9.7308923273626680e-01 7.8757491928847425e-03
    -9.1287092917527690e-01 7.9385130972237285e-03
    -1.1685852120617748e+00 8.8520438488639639e-03
    -1.6519120918868639e+00 2.2343112830119083e-02
    -5.5162098789450820e+00 2.6313478802488705e-02
    -6.5574385243020155e+00 2.2343112830119083e-02
    -5.5162098789450820e+00 1.3960715317964081e-02
    -3.2525293801011315e+00 1.3960715317964081e-02
    -3.2525293801011315e+00 1.3641197749745955e-02
    -3.1622776601683804e+00 1.3960715317964081e-02
    -3.2525293801011315e+00 1.8826641510556207e-02
    -4.5825756949558398e+00 1.7993390891808767e-02
    -4.3588989435406740e+00 1.1766650944097620e-02
    -2.6186146828319066e+00 9.8039215686274508e-03 -2.
    1.7993390891808767e-02 -4.3588989435406740e+00
    2.0949302913588052e-02 -5.1478150704935004e+00
    2.0949302913588052e-02 -5.1478150704935004e+00
    1.8826641510556207e-02 -4.5825756949558398e+00
    1.8826641510556207e-02 -4.5825756949558398e+00
    1.9797940651076228e-02 -4.8419463487779835e+00
    2.2343112830119083e-02 -5.5162098789450820e+00
    2.9351184281715705e-02 -7.3484692283495505e+00
    1.5558221147202763e-02 -3.6968455021364748e+00
    1.1951487560989823e-02 -2.6736020923368824e+00
    8.5211730201379850e-03 -1.5111525699121977e+00
    7.8512522464724548e-03 -1.0465362369445670e+00
    7.8826495314448016e-03 -1.1055415967851334e+00
    8.3002316389455821e-03 -1.4046255632633819e+00
    8.2469708254123506e-03 -1.3764944032233706e+00
    8.1744661242894364e-03 -1.3359678613583033e+00
    7.9760812529117899e-03 -1.2018504251546629e+00
    7.8483279485574431e-03 -1.0370495157480220e+00
    7.8590663835113265e-03 -9.3826535710420456e-01
    8.0538985225140428e-03 -1.2602520756252087e+00
    1.0484702052820550e-02 -2.2239482786130500e+00
    2.6313478802488705e-02 -6.5574385243020155e+00
    2.4076867819785921e-02 -5.9721576223896253e+00
    2.4076867819785921e-02 -5.9721576223896253e+00
    1.3960715317964081e-02 -3.2525293801011315e+00
    1.3641197749745955e-02 -3.1622776601683804e+00
    1.3641197749745955e-02 -3.1622776601683804e+00
    1.4307724303673037e-02 -3.3499585403736276e+00
    1.8826641510556207e-02 -4.5825756949558398e+00
    1.4686219698294404e-02 -3.4556007394645900e+00
    1.1123170302790907e-02 -2.4238399287081638e+00
    9.5677654420527041e-03 -1.9185544203461593e+00
    1.5558221147202763e-02 -3.6968455021364748e+00
    1.7268722469176080e-02 -4.1633319989322697e+00
    1.7268722469176080e-02 -4.1633319989322697e+00
    1.6065153235220491e-02 -3.8359204520278745e+00
    1.6065153235220491e-02 -3.8359204520278745e+00
    1.3641197749745955e-02 -3.1622776601683804e+00
    1.1766650944097620e-02 -2.6186146828319066e+00
    1.1592225421859868e-02 -2.5663606325985673e+00
    1.2579078977878133e-02 -2.8577380332470415e+00
    1.0600402076495872e-02 -2.2607766610417559e+00
    8.7168206854014735e-03 -1.5963668427946607e+00
    7.9385130972237285e-03 -1.1685852120617748e+00
    7.8590663835113265e-03 -9.3826535710420456e-01
    7.9503015573719037e-03 -8.4779124789065852e-01
    7.8757491928847425e-03 -1.0954451150103324e+00
    7.9074424766415984e-03 -1.1365151414154879e+00
    7.9274461576727892e-03 -8.6373129272462157e-01
    8.0204189345144308e-03 -8.0878633664637567e-01
    7.9274461576727892e-03 -8.6373129272462157e-01
    8.2469708254123506e-03 -1.3764944032233706e+00
    1.1123170302790907e-02 -2.4238399287081638e+00
    1.1766650944097620e-02 -2.6186146828319066e+00
    1.3345852320263033e-02 -3.0783421635988528e+00
    1.2356491944209822e-02 -2.7928480087537881e+00
    1.2356491944209822e-02 -2.7928480087537881e+00
    1.2356491944209822e-02 -2.7928480087537881e+00
    1.2579078977878133e-02 -2.8577380332470415e+00
    1.6065153235220491e-02 -3.8359204520278745e+00
    1.5558221147202763e-02 -3.6968455021364748e+00
    1.3345852320263033e-02 -3.0783421635988528e+00
    9.8892109124136124e-03 -2.0288615205990381e+00
    9.4950587937077096e-03 -1.8929694486000916e+00
    1.0600402076495872e-02 -2.2607766610417559e+00
    1.1592225421859868e-02 -2.5663606325985673e+00
    1.2356491944209822e-02 -2.7928480087537881e+00
    1.3345852320263033e-02 -3.0783421635988528e+00
    1.3641197749745955e-02 -3.1622776601683804e+00
    1.1766650944097620e-02 -2.6186146828319066e+00
    1.0374209358201375e-02 -2.1884866196096628e+00
    1.0167548487649700e-02 -2.1213203435596419e+00
    1.0374209358201375e-02 -2.1884866196096628e+00
    1.0374209358201375e-02 -2.1884866196096628e+00
    9.8039215686274508e-03 -2. 8.0718559551140358e-03
    -1.2724180205607034e+00 7.8512522464724566e-03
    -9.5553308590590924e-01 8.0204189345144308e-03
    -8.0878633664637567e-01 8.0204189345144308e-03
    -8.0878633664637567e-01 7.8548308313936537e-03
    -9.4686415294799864e-01 7.9385130972237268e-03
    -8.5573562773027578e-01 7.9385130972237268e-03
    -8.5573562773027578e-01 7.8826495314448016e-03
    -9.0453403373329100e-01 8.0906454645008584e-03
    -1.2847577241015340e+00 1.0268592259604380e-02
    -2.1543039806456368e+00 1.0848921574718484e-02
    -2.3389288649495348e+00 1.0721674393746196e-02
    -2.2990681342044401e+00 1.0848921574718484e-02
    -2.3389288649495348e+00 1.0848921574718484e-02
    -2.3389288649495348e+00 1.0982588894337331e-02
    -2.3804761428476167e+00 1.2356491944209822e-02
    -2.7928480087537881e+00 1.3071895424836602e-02 -3.
    1.3345852320263033e-02 -3.0783421635988528e+00
    1.2147725269407212e-02 -2.7315816776253401e+00
    9.8892109124136124e-03 -2.0288615205990381e+00
    9.4251095147569776e-03 -1.8680995472317183e+00
    9.8039215686274508e-03 -2. 9.8039215686274508e-03 -2.
    9.6433728904095194e-03 -1.9448929779430473e+00
    9.4251095147569776e-03 -1.8680995472317183e+00
    9.4251095147569776e-03 -1.8680995472317183e+00
    9.3577844549224201e-03 -1.8439088914585768e+00
    8.9004301522769974e-03 -1.6712580435934672e+00
    9.1703588375870761e-03 -1.7750896868120256e+00
    9.6433728904095194e-03 -1.9448929779430473e+00
    9.6433728904095194e-03 -1.9448929779430473e+00
    9.6433728904095194e-03 -1.9448929779430473e+00
    9.0025711592416728e-03 -1.7113069358158490e+00
    7.8826495314448016e-03 -1.1055415967851334e+00
    7.8757491928847425e-03 -9.1287092917527690e-01
    7.8548308313936537e-03 -9.4686415294799864e-01
    7.8512522464724548e-03 -1.0465362369445670e+00
    7.8483279485574448e-03 -9.6427411113412598e-01
    7.8639620834712719e-03 -1.0755755413256844e+00
    8.1102834156984317e-03 -1.2972766972655811e+00
    9.1123748441428176e-03 -1.7533037597843886e+00
    9.4251095147569776e-03 -1.8680995472317183e+00
    9.6433728904095194e-03 -1.9448929779430473e+00
    9.7220358713868589e-03 -1.9720265943665389e+00
    9.6433728904095194e-03 -1.9448929779430473e+00
    9.7220358713868589e-03 -1.9720265943665389e+00
    1.0721674393746196e-02 -2.2990681342044401e+00
    1.1123170302790907e-02 -2.4238399287081638e+00
    1.0982588894337331e-02 -2.3804761428476167e+00
    1.0982588894337331e-02 -2.3804761428476167e+00
    9.8039215686274508e-03 -2. 9.0025711592416728e-03
    -1.7113069358158490e+00 8.6748584986593175e-03
    -1.5786270908810263e+00 8.5575643229800942e-03
    -1.5275252316519468e+00 8.7168206854014735e-03
    -1.5963668427946607e+00 8.8053552845146939e-03
    -1.6329931618554525e+00 8.8520438488639639e-03
    -1.6519120918868639e+00 9.1703588375870761e-03
    -1.7750896868120256e+00 9.3577844549224201e-03
    -1.8439088914585768e+00 9.3577844549224201e-03
    -1.8439088914585768e+00 9.2929598336700479e-03
    -1.8203641092364122e+00 9.2929598336700479e-03
    -1.8203641092364122e+00 9.2929598336700479e-03
    -1.8203641092364122e+00 9.2929598336700479e-03
    -1.8203641092364122e+00 9.3577844549224201e-03
    -1.8439088914585768e+00 1.0070801978266031e-02
    -2.0894625286270592e+00 1.0374209358201375e-02
    -2.1884866196096628e+00 1.0374209358201375e-02
    -2.1884866196096628e+00 1.0484702052820550e-02
    -2.2239482786130500e+00 1.0848921574718484e-02
    -2.3389288649495348e+00 1.1427337982521945e-02
    -2.5166114784235827e+00 1.1766650944097620e-02
    -2.6186146828319066e+00 1.2147725269407212e-02
    -2.7315816776253401e+00 1.2147725269407212e-02
    -2.7315816776253401e+00 1.1592225421859868e-02
    -2.5663606325985673e+00 1.1427337982521945e-02
    -2.5166114784235827e+00 1.1271215448844216e-02
    -2.4691646752593046e+00 1.1427337982521945e-02
    -2.5166114784235827e+00 1.1592225421859868e-02
    -2.5663606325985673e+00 1.0848921574718484e-02
    -2.3389288649495348e+00 1.0721674393746196e-02
    -2.2990681342044401e+00 1.0721674393746196e-02
    -2.2990681342044401e+00 9.7220358713868589e-03
    -1.9720265943665389e+00 9.0025711592416728e-03
    -1.7113069358158490e+00 8.5952788945159158e-03
    -1.5442199922988253e+00 8.2730922609242762e-03
    -1.3904435743076140e+00 8.3576733737386385e-03
    -1.4337208778404373e+00 8.3576733737386385e-03
    -1.4337208778404373e+00 8.3576733737386385e-03
    -1.4337208778404373e+00 8.4521944803585321e-03
    -1.4793261293918423e+00 8.5952788945159158e-03
    -1.5442199922988253e+00 8.6343612345880314e-03
    -1.5612494995995994e+00 8.5575643229800942e-03
    -1.5275252316519468e+00 8.5211730201379850e-03
    -1.5111525699121977e+00 8.5211730201379850e-03
    -1.5111525699121977e+00 8.5952788945159158e-03
    -1.5442199922988253e+00 8.6748584986593175e-03
    -1.5786270908810263e+00 8.8520438488639639e-03
    -1.6519120918868639e+00 9.1703588375870761e-03
    -1.7750896868120256e+00 9.2929598336700479e-03
    -1.8203641092364122e+00 9.2929598336700479e-03
    -1.8203641092364122e+00 9.3577844549224201e-03
    -1.8439088914585768e+00 9.8892109124136124e-03
    -2.0288615205990381e+00 1.0982588894337331e-02
    -2.3804761428476167e+00 1.1592225421859868e-02
    -2.5663606325985673e+00 1.1951487560989823e-02
    -2.6736020923368824e+00 1.1951487560989823e-02
    -2.6736020923368824e+00 1.1951487560989823e-02
    -2.6736020923368824e+00 1.2147725269407212e-02
    -2.7315816776253401e+00 1.1766650944097620e-02
    -2.6186146828319066e+00 1.1766650944097620e-02
    -2.6186146828319066e+00 1.0721674393746196e-02
    -2.2990681342044401e+00 1.0848921574718484e-02
    -2.3389288649495348e+00 1.0848921574718484e-02
    -2.3389288649495348e+00 9.4950587937077096e-03
    -1.8929694486000916e+00 8.9505818903546155e-03
    -1.6910497103299527e+00 8.5575643229800942e-03
    -1.5275252316519468e+00 7.8757491928847425e-03
    -1.0954451150103324e+00 7.9628209257815181e-03
    -1.1906227016071957e+00 7.9760812529117899e-03
    -1.2018504251546629e+00 8.0204189345144308e-03
    -1.2364204916548041e+00 8.0538985225140428e-03
    -1.2602520756252087e+00 8.0538985225140428e-03
    -1.2602520756252087e+00 8.1102834156984317e-03
    -1.2972766972655811e+00 8.1976812347432891e-03
    -1.3492638068638840e+00 8.3002316389455821e-03
    -1.4046255632633819e+00 8.2469708254123506e-03
    -1.3764944032233706e+00 8.1976812347432891e-03
    -1.3492638068638840e+00 8.2218418566424971e-03
    -1.3627702877384940e+00 8.2218418566424971e-03
    -1.3627702877384940e+00 8.2469708254123506e-03
    -1.3764944032233706e+00 8.3002316389455821e-03
    -1.4046255632633819e+00 8.3576733737386385e-03
    -1.4337208778404373e+00 8.3880341865632500e-03
    -1.4486516314475941e+00 8.4860629696185980e-03
    -1.4950900031928041e+00 8.4860629696185980e-03
    -1.4950900031928041e+00 8.5211730201379850e-03
    -1.5111525699121977e+00 8.6343612345880314e-03
    -1.5612494995995994e+00 9.0025711592416728e-03
    -1.7113069358158490e+00 9.8892109124136124e-03
    -2.0288615205990381e+00 1.1766650944097620e-02
    -2.6186146828319066e+00 1.1951487560989823e-02
    -2.6736020923368824e+00 1.1271215448844216e-02
    -2.4691646752593046e+00 1.0848921574718484e-02
    -2.3389288649495348e+00 1.0982588894337331e-02
    -2.3804761428476167e+00 1.0167548487649700e-02
    -2.1213203435596419e+00 9.2305204267059630e-03
    -1.7974340685458339e+00 8.8520438488639639e-03
    -1.6519120918868639e+00 8.5211730201379850e-03
    -1.5111525699121977e+00</input_scale>
  <output_scale>
    5.2631578947368418e-01 4.9999999999999994e-01 5.2631578947368418e-01
    4.9999999999999994e-01 5.2631578947368418e-01 4.9999999999999994e-01
    5.2631578947368418e-01 4.9999999999999994e-01 5.2631578947368418e-01
    4.9999999999999994e-01 5.2631578947368418e-01 4.9999999999999994e-01
    5.2631578947368418e-01 4.9999999999999994e-01 5.2631578947368418e-01
    4.9999999999999994e-01 5.2631578947368418e-01 4.9999999999999994e-01
    5.2631578947368418e-01 4.9999999999999994e-01 5.2631578947368418e-01
    4.9999999999999994e-01</output_scale>
  <inv_output_scale>
    1.8999999999999999e+00 -9.4999999999999996e-01
    1.8999999999999999e+00 -9.4999999999999996e-01
    1.8999999999999999e+00 -9.4999999999999996e-01
    1.8999999999999999e+00 -9.4999999999999996e-01
    1.8999999999999999e+00 -9.4999999999999996e-01
    1.8999999999999999e+00 -9.4999999999999996e-01
    1.8999999999999999e+00 -9.4999999999999996e-01
    1.8999999999999999e+00 -9.4999999999999996e-01
    1.8999999999999999e+00 -9.4999999999999996e-01
    1.8999999999999999e+00 -9.4999999999999996e-01
    1.8999999999999999e+00 -9.4999999999999996e-01</inv_output_scale>
  <weights>
    <_>
      3.4280424920407337e-02 8.6746365570806450e-03
      7.6219412682331303e-03 1.6914258112665927e-02
      5.1575113622811999e-03 -2.2254797474857348e-02
      -2.3183313121989617e-02 1.4861966635456134e-03
      -2.1542739461926769e-02 -1.5151706159417379e-02
      -4.1974843714453801e-03 1.1934018705108939e-02
      -1.3704859703347302e-02 5.4742291891908285e-03
      -2.5070759000362420e-02 2.6277968347957623e-02
      -5.8954454159142822e-03 -2.7128684710495874e-02
      -1.1624287175827927e-02 8.4576491965051986e-03
      -3.3617699221984626e-04 -2.0256034093513214e-02
      -2.7540496546493032e-02 -4.9767686836037894e-03
      -4.2355990655002125e-03 2.0863658470160595e-02
      1.2815363129437889e-02 3.3701999974336067e-02
      1.8676239474257294e-02 1.7821321758344814e-03
      1.8547152737704437e-02 1.7568805384646221e-02
      1.4939765062583744e-02 -2.0116237228788277e-03
      9.4452568298359803e-03 5.4938303765697055e-02
      2.3306236317974641e-02 1.9756604311591968e-02
      -3.2407204512908204e-02 -1.8299486012340199e-02
      8.2061656724928943e-03 1.9484722200564519e-02
      4.4817189144555339e-03 -1.6946122587819846e-02
      -1.4535536309416503e-02 -1.7298178919390398e-02
      -1.2582703214280212e-02 5.0704038048045141e-03
      8.6704587433317857e-03 1.6547581259093752e-02
      7.1516029784239633e-03 -1.3856465316146951e-02
      1.5640446665048506e-03 -8.6710357423576707e-03
      3.4681827744786685e-03 -5.5463536977630214e-03
      2.9415373259944104e-03 4.0527727384611634e-03
      -4.6733202810010713e-03 -4.0545821646583349e-03
      1.2688067278199237e-02 -1.3683145970547927e-02
      9.8894871909863905e-03 -1.1255473087596047e-02
      -9.8627229912024994e-03 -5.0151155951832331e-03
      -9.7983228993586188e-03 -1.9221588317258915e-02
      1.0362799793232166e-02 -1.4392684570589757e-02
      3.2432419927457845e-03 -5.6716305381246954e-03
      6.0010500675031896e-03 1.3015110496989892e-02
      3.9105327475437153e-04 -2.5419534619365229e-03
      -7.0353394682978136e-03 8.2936785094255890e-03
      6.5004910009531921e-03 -8.3409084547171660e-03
      -8.8043822945717103e-03 -7.1395295333770675e-04
      -6.8975273503620827e-03 1.0682128110697062e-02
      5.8001985963802008e-03 2.8043890681631191e-02
      -1.3286860497060983e-03 -2.8140039639637767e-03
      5.0277425732959185e-03 1.8183374190665139e-03
      -1.4363928038134183e-02 -7.4679998388654262e-03
      1.1513170290053932e-02 -5.2282854512748214e-03
      -4.3525857683071546e-04 -1.0849560791383533e-02
      4.3877700046796690e-03 -4.3580946875630836e-03
      -1.9154295484166761e-02 -9.3920928665833774e-03
      1.6378489157293794e-03 -6.0918935735465186e-03
      1.8724877458670689e-02 1.0163298076458268e-02
      -2.0375129744738357e-02 -5.9639336221188784e-03
      -8.0950914532248574e-03 1.9159507343147780e-02
      -1.0953496869303128e-02 -1.6461906263680430e-02
      1.3732139820571509e-02 -2.3055006363556146e-02
      -7.2969832221050591e-03 4.3871009715661363e-03
      -3.8836848517327985e-03 1.3999995189916181e-02
      2.7068717223865677e-03 -1.0937683708267986e-02
      9.4553154611242002e-03 1.4358117874986976e-05
      -7.8957103178643815e-04 -3.6708420749525096e-03
      -1.7640819126429525e-02 1.1264675729238609e-02
      1.1440413353970398e-02 2.4787446424007751e-03
      9.8540776010122913e-03 1.4390200819375917e-02
      3.0175229428685151e-02 -1.2086356741997048e-02
      -6.4416175225203267e-03 -3.6506237562826224e-03
      -2.4983025830345791e-02 -1.1096259098870610e-02
      4.2461843708685009e-03 7.5624366403904551e-04
      -1.0470837792653750e-02 2.3487815237063042e-02
      -2.5761268695587689e-02 -1.2513229040036877e-02
      -2.5386840673769742e-02 -2.2004941408067420e-02
      6.5844379593358298e-03 1.3912751661970270e-02
      -1.1474481570512920e-02 1.3401176520353266e-03
      -5.0420053899836430e-03 2.2000274626276954e-02
      -9.0723237762174568e-03 1.6416649415732322e-02
      -3.9441002997379661e-03 -4.4580291559933845e-03
      6.9999018981295024e-03 2.0078085335269191e-03
      -1.9742174878746358e-02 -7.8876070278661916e-03
      4.0619795746649817e-03 7.6368092529230909e-03
      -2.4625821437221748e-03 -4.4064090608790553e-03
      6.7374779899681894e-03 -2.4633762963348918e-02
      7.2720795771040198e-03 2.4011909038535941e-03
      5.3550018783122234e-05 9.8277721578744347e-04
      -6.1162801604741851e-03 -9.8281924925275460e-03
      1.4159593712594976e-02 -6.0758680646629563e-03
      -4.1604515098920511e-04 -5.2111865411764565e-03
      -4.0998955264457205e-03 1.1249984120191420e-02
      -4.0489303322740764e-03 -8.4289126433373211e-03
      -2.6946626204092392e-03 8.1671478055172966e-03
      2.1656279779461038e-02 -1.3016821061632513e-02
      -5.2211776715525076e-03 2.4984295440242939e-03
      -1.3334961353094046e-02 -4.4477875909904926e-03
      4.9056814641917695e-03 1.0287654203171277e-02
      -1.0660975515307630e-02 1.2906832874126008e-02
      -1.3554932219675849e-02 -2.7562525650478131e-03
      -1.6722419195179299e-02 -1.7238564222149314e-02
      6.1177530887638948e-03 7.5092992437997622e-03
      -5.1004023508696913e-03 -2.8240095099686872e-03
      2.1364074143693105e-03 1.5728472915273094e-02
      -8.0272116591867532e-03 -3.6628156539653654e-04
      -2.6574611033877878e-03 -1.5726338248945256e-02
      1.5465388315641182e-02 7.2007615187670319e-03
      -2.1136047917077370e-02 -8.5667297399163456e-03
      5.1703628810159958e-03 2.5273941201471774e-02
      -6.0358972219348682e-03 -1.2885845582389720e-02
      1.5936167635741461e-02 -2.7459968050998696e-02
      7.1202066526446072e-03 1.0739709033094749e-02
      3.8426258680786351e-03 -4.4797558193705482e-03
      2.8497393031733766e-03 -7.3145201101683897e-03
      3.0846823335387637e-02 -6.9115464970259579e-03
      -6.5385492326007688e-03 -2.3102360831482610e-04
      -1.5967538809600036e-02 1.5248887315883281e-02
      8.8974693544228260e-03 -4.1965284078253942e-04
      1.2937738532141477e-02 1.6606174101555474e-02
      2.1077180333721229e-02 -3.8866591181470976e-02
      -1.3432242664890634e-02 -4.1352259266968991e-03
      -3.4086947277793794e-02 -3.3415359114465958e-03
      -1.0920351311851681e-03 1.1699412036734393e-03
      -1.9931318137779479e-02 1.6331100571908164e-02
      -2.8722937432661782e-02 -3.1772585218606971e-03
      -3.0369601957827778e-02 -2.4368769242764651e-02
      3.1500314807806919e-03 1.1567514575546122e-02
      -8.1824597510462751e-03 1.0287589656914380e-02
      5.5636207578803167e-03 1.6328796795262848e-02
      -4.6803208605156917e-03 1.4812910208395320e-03
      2.2607615685503154e-03 -8.7347293861445297e-03
      7.3049835539118792e-03 3.7965668450353407e-03
      -1.7159075411877903e-02 -8.8168979802303385e-03
      1.1513001033096770e-02 1.9463333699989944e-02
      -3.0776732002456612e-03 -1.0132670687342717e-02
      1.2475697359760025e-02 -2.1523545004506393e-02
      8.7139860975117105e-03 1.8726400573623094e-02
      1.2651028324377990e-02 -7.3081156375650073e-04
      1.6559590465444033e-02 -2.1651690254491021e-04
      3.2084166743723032e-02 -1.6722312297100632e-02
      -6.8525226571282223e-03 -9.5594931123557474e-04
      -1.5836490520342576e-02 1.0641719165678571e-02
      3.9941067394792421e-04 1.5144097326195325e-03
      1.5474175367952802e-02 1.6483177581629049e-02
      1.0862764480137442e-02 -3.3348917435810935e-02
      -1.5258254913157854e-02 -8.8068708082340089e-03
      -3.1128586061535488e-02 2.0536197348579610e-03
      -6.3241337702851204e-03 -6.1148820147377235e-03
      -2.2593939820510427e-02 1.0835488034658655e-02
      -2.4047817829830044e-02 -2.0292689243846681e-03
      -2.8389623128241583e-02 -1.4484506934692365e-02
      -7.6632827403139972e-03 1.5698923184456210e-03
      -1.5460844084377121e-02 6.7636756960422718e-03
      6.1982340689917368e-04 2.2078925158979440e-02
      3.0782217831718368e-03 -1.3589175824147140e-03
      -1.9571413694773232e-03 -1.9256620516549854e-02
      2.2051202888529773e-02 5.3532408167849240e-03
      -1.5175725563809597e-02 -1.6059982031425144e-02
      -8.3658302991329713e-03 3.3318148036247872e-02
      -1.4720015240020316e-02 -2.1979393113236954e-02
      3.0816426514509360e-02 -3.2692305489129624e-02
      -3.2583623592036910e-03 2.6175810362645156e-03
      -4.0829275512551493e-03 3.4858797793107842e-03
      -1.1847398655813112e-03 -1.2611470166309780e-02
      3.5972480225829308e-02 2.0828612190074893e-03
      -1.9157147573878725e-03 -4.3704476930812516e-03
      -1.0146766551430111e-02 2.9347161946081137e-02
      8.5286118867413004e-03 5.3170925915701859e-03
      7.1059921465843360e-03 2.0526901803480151e-02
      1.9368865443570714e-02 -4.1680353931105661e-02
      -1.4047952630844044e-02 -3.7932169371922595e-04
      -3.6150526688372993e-02 -6.3026482940025360e-03
      1.1018228535762755e-02 8.6831530508331943e-03
      -2.0737419691142071e-02 1.4992537493432791e-02
      -2.6588400245930691e-02 5.9453931582284340e-04
      -3.7056297459356513e-02 -3.2300826879367542e-02
      9.2549555075935562e-03 9.1080785867435985e-03
      -1.7417295357292879e-02 8.3692506361748766e-03
      -1.4984010328510967e-03 1.2050761554987981e-02
      -2.1599132539794182e-02 5.9164611807334599e-03
      3.7196023729116611e-04 -2.7419453590510387e-02
      9.3148527827739674e-03 5.2819585420468508e-03
      -2.3559408238122331e-02 -6.9413774797459768e-03
      2.0365798363807277e-02 3.7930805323486839e-02
      -1.5004291753953980e-02 -1.9151995792037944e-02
      3.1415994918569487e-02 -3.3296361510903462e-02
      1.4181011742659204e-02 2.1635057048232639e-02
      1.2694331666612090e-02 2.6514894231080958e-03
      1.5988574558233316e-02 -5.9175416978185479e-03
      4.7339411833192353e-02 -3.4611505874657819e-02
      -8.1862713590746556e-03 5.9597922528510233e-03
      -2.2060406147104760e-02 1.1105508192908032e-02
      1.2434273552595801e-03 1.1748906721032340e-02
      2.4555643648919028e-02 2.7479683608682706e-02
      1.7774907363734212e-02 -5.3869678048801675e-02
      -2.0126284940265065e-02 -1.4376562559000768e-02
      -6.2934461058559488e-02 2.1344918940005377e-03
      6.1902130182163939e-04 1.3463605439255220e-03
      -3.3788729353945272e-02 1.1529740556763887e-02
      -3.1956053044073555e-02 3.3174216048779169e-03
      -5.0082502893429061e-02 -2.7795777657315397e-02
      -2.3260649346970061e-03 -2.3094741753083379e-03
      -3.6832698481747188e-02 8.7661558784461868e-03
      -3.2005572337377827e-03 3.0227475325089393e-02
      -9.2885873103130973e-03 1.5171390386007351e-02
      1.0460314940265864e-02 -2.4415473584659775e-02
      4.0385263989686313e-03 1.1137409980635866e-04
      4.6933677905357232e-03 -9.0960754834374692e-03
      7.7044060318423044e-03 1.8074737199243046e-02
      -9.2299911166407924e-03 -1.1194774202683581e-02
      1.7600781099240657e-02 -6.5912929719135231e-03
      1.4367795695228638e-02 3.8356930129438611e-03
      1.3081661832303436e-05 -1.1008822186994446e-02
      -3.0257940367314461e-03 -3.0050265202485093e-03
      4.1932854461508219e-02 -2.1535299660962435e-02
      9.5455681806766381e-04 1.6328219685154627e-03
      2.6558073083705326e-05 1.2476592845630775e-02
      -2.2179714431099489e-03 4.4678533999864536e-03
      2.7046678302983101e-03 2.9096001758101741e-02
      -7.2393080935949823e-03 -3.9148910579115855e-02
      -4.1150959766292888e-03 -8.4304338078164016e-03
      -2.6026219379577099e-02 1.5496793746065088e-02
      8.1452886478548172e-03 -7.3736890453492540e-03
      -1.7921629826598074e-03 -8.6389897782124031e-04
      -9.0543423909421310e-03 -2.2661876716234643e-05
      -1.6171956901069897e-02 -1.0655251820088391e-02
      4.1863193820753193e-03 -8.6253318124328016e-03
      -3.6946609738737718e-03 -5.7264110220467410e-03
      4.7066400275661453e-03 7.4395240382951083e-04
      -1.0575509501250099e-02 -2.2765569989173025e-03
      2.0332672846824665e-02 -8.5331067789245381e-03
      -4.2001985726846285e-03 7.6217312429762447e-03
      1.0601894287337627e-02 -9.3186446447250815e-03
      -7.0179671636931796e-03 2.2147202751902728e-03
      -8.3115793125107407e-03 -2.3992363175564450e-03
      3.8684786967668468e-03 -3.1831291179188720e-03
      5.9223512713553845e-03 2.5055368880076176e-03
      -1.0119344793231032e-02 -1.5090958015436756e-03
      -2.0435625522425305e-04 -3.1071677511533618e-03
      2.3053421815014626e-02 -1.1454558855196232e-02
      1.2055280475523479e-03 -3.0655138146653779e-03
      3.3455092292204746e-03 6.5636878613544126e-03
      -1.2648512624025988e-02 1.0621951619194062e-02
      -6.8899132211511878e-04 2.2038968907682002e-02
      -1.1747202356958843e-02 -1.2869279802791081e-02
      -1.6407444338845038e-03 4.9531796794011174e-04
      -1.1108783340262269e-03 6.3663854153983793e-03
      1.1538826099706526e-02 9.4444540225138273e-03
      2.1245934591557123e-03 -3.0788888519433554e-03
      -7.2600660120040964e-03 7.9674957368771140e-04
      6.5924234148757898e-04 5.6808418968109092e-03
      6.0012646372834518e-03 -1.1884913803443935e-02
      -1.1867687884713781e-02 -2.4316951428389423e-03
      -9.2441007658604140e-04 -2.8373160554108780e-03
      -1.2829116781579499e-02 -4.6053798892331625e-03
      1.6763199447917262e-02 -1.2492480781188394e-02
      -4.2882275169370439e-03 2.4668927640724180e-06
      2.4198165331418553e-03 -6.1026518049164943e-03
      2.2610378741031484e-03 2.3285660477041109e-03
      -2.3329978591323997e-04 -3.0208438929460466e-03
      6.8810752446239196e-03 -8.7774722849653930e-03
      1.2283598054655738e-02 7.5007968572108064e-03
      -4.1139266720838135e-03 -5.8304264139719918e-03
      1.2631784651563307e-02 -4.6583131022171591e-03
      2.4574084927742452e-02 -1.6451505190888203e-02
      1.1541968503952595e-03 -2.5678380716462855e-03
      2.7115517988521823e-03 1.0196793093903478e-02
      -5.5793720357038669e-03 1.0090780179077777e-02
      2.1935424686292762e-03 1.7301274597914681e-02
      -1.0159734579721079e-02 -1.8615795259961355e-02
      -1.0103848303549814e-02 -8.6847714524345664e-03
      -5.0348830093030058e-03 7.0733275293312844e-03
      5.3212197094113130e-03 -1.4109980112982665e-03
      -1.3135916314763862e-02 -5.6398253632191850e-03
      -3.7392406394867535e-03 -2.4880519132163617e-03
      -5.0644399689408733e-03 2.9588778514962901e-03
      9.9669834042756425e-04 -8.4590987515238726e-03
      -1.6969748906941567e-02 -3.0665176887040920e-03
      6.2080590684426709e-04 7.0215438106469765e-03
      -3.6222082879315476e-03 -5.9269687256190261e-03
      1.5361447273555595e-02 -1.2325561060778213e-02
      -2.5847766755877255e-03 1.4195360867395578e-04
      2.6081949816112669e-05 -7.4908962132245937e-03
      5.2878475837173514e-03 1.0250421081756654e-03
      5.2007880878271484e-04 -5.2808076830563556e-03
      4.7719898435247690e-03 -7.5466722376148149e-03
      9.1745357745577315e-03 5.0355418694008310e-03
      -5.6442421580765708e-03 -3.9824741880474801e-03
      1.1554652105520598e-02 -3.3068303564124484e-03
      2.4912550793322153e-02 -1.8079135183595507e-02
      1.4364901780438062e-03 -2.5911365682090423e-03
      1.0086148244108472e-03 7.7389428231463926e-03
      -7.7821048122555594e-03 1.0717290987492550e-02
      5.1214043906528273e-03 1.7482894383901965e-02
      -1.0498122274650740e-02 -1.9533756144776995e-02
      -8.6172532507313142e-03 -9.2126375852068475e-03
      -4.3272401610468638e-03 1.0122012466569399e-02
      7.5177560336072233e-03 -9.3860815033866671e-04
      -1.2495216168850458e-02 -4.0077910351769067e-03
      -7.0695598527786294e-03 -1.1654658942334354e-03
      -5.0122520274659800e-03 1.0855158494186053e-03
      7.1583399466714197e-04 -6.6459959420458545e-03
      -1.6042207271684195e-02 -4.9912790200193893e-03
      1.9893416975122254e-03 5.7424216794876304e-03
      -5.5144165205202860e-03 -4.8760847296859082e-03
      1.3693276192765403e-02 -1.5006580543939491e-02
      -2.9137119680359993e-03 -8.4719450139075900e-04
      1.7749114179522896e-04 -5.6786200674180136e-03
      5.4262873075949384e-03 5.7949219798760073e-04
      -1.6128479304294092e-03 -2.7751187795307932e-03
      7.2085899100137263e-03 -7.5397532148052593e-03
      1.0863341448767386e-02 4.7540230788031372e-03
      -4.1783913359362919e-03 -5.3604561607595146e-03
      1.1289735514160633e-02 -2.2504087498294552e-03
      2.1034050388136365e-02 -1.8556751434198441e-02
      -9.2037335881209467e-04 -3.6669741223231099e-03
      1.1642397370146970e-03 8.2240077439690445e-03
      -6.2522665087110874e-03 1.0100467261053726e-02
      2.6615790850796780e-03 1.9937880098134166e-02
      -1.1389544020069394e-02 -1.8936938310358434e-02
      -6.9161251657051479e-03 -1.0902272095775826e-02
      -7.9895498995369470e-03 8.6594427336935589e-03
      5.2731033171004027e-03 3.5467439701012136e-04
      -1.1174428671785478e-02 -5.7229448939196299e-03
      -6.8065116063074456e-03 -8.7955773370658324e-07
      -7.7386270717092849e-03 3.9205274755553902e-03
      -2.6836496634287379e-03 -7.1616696832413652e-03
      -1.6409666725844350e-02 -3.7667805148156115e-03
      1.8043487943123842e-03 7.5003030785879918e-03
      -6.1307513875141859e-03 -7.4043857785094803e-03
      3.6135436372278420e-03 -3.1219972232579669e-03
      4.7653368079591989e-03 3.4363904261427050e-03
      -1.1654920552156457e-02 -1.5991737337987758e-02
      -9.1132347637228623e-03 4.2118616977381536e-03
      2.6169193367382959e-04 -3.8655018939981784e-03
      4.9874585730004103e-03 -1.2095930621250174e-02
      1.1739492549612089e-03 1.2773270021362657e-03
      -1.5970985147479203e-02 -3.0274526193939318e-04
      1.3308697963047935e-03 -9.2226341115924058e-03
      1.2269038880254742e-02 -4.9519584613403689e-03
      7.7321784641594166e-04 -6.9474273799492170e-03
      2.3361733386480388e-03 1.3083431751500384e-02
      3.1962181799298386e-03 6.3374972971382551e-03
      -1.8096857209014686e-03 8.9355624880301989e-03
      2.1414449175747837e-03 -1.5748629100180930e-02
      -2.8899723959545237e-03 -3.9971678508061567e-03
      -1.8599537309346697e-03 -6.7903596848171831e-03
      1.3240305709210164e-02 1.0491652636790263e-02
      -4.9894436821120314e-03 5.4020763266267617e-03
      2.9792453271977764e-03 -1.1565623630554240e-02
      -9.8287121073488918e-03 -4.4397074483183419e-03
      8.2105619356206885e-03 5.0559202953388447e-03
      -6.8088519413352609e-03 6.4729525351433625e-03
      1.4751860794484323e-03 1.3298286712426482e-02
      -5.5986007337215987e-03 2.1011643035661180e-03
      4.5756690812514744e-03 3.5967007056556550e-03
      -7.1929160689028155e-03 -3.9679343698503823e-03
      -6.4186005942513460e-03 4.8091147284160399e-03
      1.1004306733587467e-02 -4.4560701954088743e-03
      7.4714593316337887e-03 1.7328740329797838e-03
      -7.9489126449706696e-03 -7.3407947686021848e-03
      1.2630491464321655e-02 2.5592031951474220e-03
      6.7668081656550236e-03 -1.1458028625694503e-02
      1.0252673744152341e-02 -5.2553179759364981e-03
      2.6794427451285129e-03 -2.2162068073768425e-02
      8.2023727892713044e-04 -1.8103385444040202e-03
      -6.5883187386205347e-03 -7.8288270599557262e-03
      -6.8362420297846133e-03 3.3032859673224886e-03
      3.3808187663526210e-03 -4.2465531865078813e-03
      -5.4474660593240524e-03 -6.5785780507155427e-03
      -5.0314004214547445e-03 -8.8601268371523104e-03
      2.8887154845498729e-03 3.5948459643927681e-03
      -8.0143710589109119e-03 1.0741292184088638e-02
      -8.1287147279044472e-03 -6.4523972693256307e-03
      1.6861897797950929e-03 -1.2970434334545484e-04
      -3.6591397175441716e-04 9.6346847207900172e-03
      -1.8799020804180309e-03 -5.7372537625076277e-03
      -1.0525545587297052e-02 -7.6261298088769168e-04
      4.6748825080184632e-03 8.9485614447641464e-03
      9.5682795347167317e-03 -8.6477944321214726e-03
      -6.9775533179228183e-03 2.6889256291454926e-02
      1.8403259837569677e-03 8.0359109618211407e-05
      -2.5733876741341644e-02 -1.3028396221371542e-03
      -8.0424250468398382e-03 -8.1220380157667124e-03
      1.2608343797220263e-02 1.1680768221251903e-03
      -2.2521240232568136e-02 4.2413314529099605e-03
      -5.1100593463546274e-03 2.2298128232022532e-03
      -5.0988055048877710e-03 5.4194188373996954e-04
      -4.0464077679272037e-03 -1.8080723632781074e-02
      -2.4337896267076234e-02 -1.4633396570854426e-03
      -5.3677817165359324e-03 -8.5232771246341790e-03
      -1.5805346889644637e-02 -1.4246047711486765e-02
      9.6084963815084648e-03 5.3340103594788522e-03
      9.8625012705930437e-03 -1.8228705529857715e-02
      1.5155675276096986e-02 2.0408728924637593e-02
      4.8480048474098033e-03 2.2193872489257513e-03
      1.3106064130950881e-02 -1.7265788330279440e-02
      -6.6281303960423589e-03 2.2091201225709706e-02
      1.1029221834896633e-02 8.8448923823033279e-03
      9.7412484295077307e-03 -1.6237601554539603e-02
      9.4797698599289222e-03 9.3994778692510841e-03
      -2.7906297103685922e-04 1.5677491621527248e-02
      8.3508303720148981e-03 1.6485934092202812e-02
      1.1330844082037463e-03 2.5642417639307209e-02
      1.7479310325386740e-02 9.1952003909671464e-03
      -8.3529731273374354e-03 2.4643507020220213e-02
      7.1155701324079619e-04 -9.6974983371936644e-04
      -2.4444600464656348e-02 -4.5282661345121683e-03
      -6.5952188499244658e-03 -3.7341793292193890e-03
      1.3605249894492652e-02 -3.7940598275507147e-04
      -1.6104649689922132e-02 2.9931155240091175e-03
      -5.6055019396737066e-03 -1.3320869558307510e-03
      -3.0098524619806065e-03 -3.2878170998093320e-03
      -4.5346496875963661e-03 -1.7895592539848449e-02
      -1.9936713677522408e-02 -2.9433941143375314e-03
      -3.3654913350213340e-03 -5.4021401023990438e-03
      -1.5296646515537445e-02 -7.3097847710234974e-03
      1.1228434935357856e-02 3.6171620903871606e-03
      6.8492161361993920e-03 -1.6779433062528108e-02
      1.8509494761707452e-02 1.6601491135140620e-02
      2.5978146764862944e-03 4.6330113901072618e-03
      7.4447941679434762e-03 -1.4122563259097548e-02
      -4.2982114397116132e-03 1.9425088480900094e-02
      8.9720792703434152e-03 1.2240043653595097e-02
      1.1033761614571414e-02 -1.3688684299158411e-02
      3.0119613277142642e-03 3.7128292574373258e-03
      -1.5771330744277692e-03 1.4456410413898052e-02
      1.0395772455425081e-02 1.6149241755559506e-02
      1.7693228968993909e-03 2.3002503845383365e-02
      1.1915926215756784e-02 1.0288348042774868e-02
      -3.3149977533654018e-03 8.2393797432760586e-03
      1.3310559357724219e-04 -5.8389243115883087e-03
      -1.5132739793278649e-02 -4.0581531566376396e-03
      6.0613370479897788e-05 -1.0550458827443088e-02
      1.5609446027464889e-02 3.0758107661090586e-03
      -1.2805573199819386e-02 2.9494000520231081e-03
      2.6852839316464294e-03 -5.8617937816490863e-03
      -6.3844089929967303e-03 -1.2131380644847369e-02
      -1.5655402263622619e-03 -1.7301045170431739e-02
      -8.3333605525141522e-03 -7.4860406833953249e-03
      5.0995048373488538e-03 -8.6246035055446979e-03
      6.8569326316661461e-04 -1.5560679650713949e-03
      2.0376380185870850e-03 -7.4936807545161169e-04
      1.0613658892938577e-04 -1.1609166013654760e-02
      7.9592993438285693e-03 8.8238357857050483e-03
      4.4495539071040544e-03 -7.1046382891644223e-05
      1.1613680993355833e-02 -3.5624428463705807e-03
      -1.6805662981997714e-03 1.9854057107070441e-02
      6.3577409358611297e-03 -1.8101351909561338e-03
      9.5028357604049936e-03 -6.7011134727175160e-03
      6.4029882992456717e-03 6.6180085142015697e-04
      3.8816604192504485e-03 6.9607458577196800e-03
      7.7747852288279065e-03 5.2012653251296195e-03
      6.1620343190874919e-03 1.2666883963734389e-02
      5.1091416825601067e-03 -1.9183601768213588e-03
      -6.3781412128868422e-03 2.0157557905153091e-02
      1.5912639497100822e-02 7.7766764850200169e-03
      -2.4689786913099129e-02 -2.3233665082096695e-02
      -2.6648734010672259e-02 -6.6940626972183948e-04
      6.1885411412720501e-03 -6.2450992609591402e-03
      -1.0523042814156426e-02 2.9429924631627457e-03
      -1.8229725987325252e-02 -3.0102179055701379e-03
      -2.2895802183622121e-02 9.3572256696911656e-03
      -7.9914901186350501e-03 -1.9325142895035789e-02
      -1.7502325890707528e-02 1.5957583255471957e-02
      -3.7982236202165703e-03 -1.1273542342886387e-02
      -6.8114089701637182e-03 7.2898627268661361e-03
      1.8697447462155750e-02 1.2018431678058515e-02
      8.4878401932240530e-03 -1.1793518312825471e-02
      2.2256542717584558e-02 1.6166221212506927e-02
      9.1517004214038272e-03 7.2428679837985115e-03
      6.1548313466114847e-03 -2.3356468964897802e-02
      1.7526840900948783e-02 2.5530355696945412e-02
      1.4550568693168489e-02 2.3169439612185275e-02
      1.4839244192140321e-02 -2.8036506974021810e-02
      1.9899351903218676e-03 -6.6765674511269904e-03
      9.1261588006766228e-03 2.4855427429331466e-02
      1.1041563374827904e-02 1.8211310129754708e-02
      -4.7429947329651933e-03 2.7042881842067261e-02
      -2.0843593677749286e-03 2.1755991672705116e-02
      -3.7940665610290561e-03 2.0114089270378815e-02
      3.3798818242023027e-03 5.5052893573751703e-03
      -1.9315783505439266e-02 -1.1902563460178664e-02
      -1.1357051705270758e-02 -8.9713495671832622e-03
      5.6021475622713380e-03 2.7743541223792154e-03
      -8.7180339877955901e-03 5.8247779076901762e-03
      -1.1465173969181366e-02 -1.1243451347827171e-02
      -1.0094504966307542e-02 1.7631975490827534e-03
      -5.9475138842565549e-03 -2.6444493995336351e-02
      -1.6917664381457601e-02 9.9847373035379869e-03
      4.5853791648821198e-03 -1.6444479333240392e-02
      -5.7931695699943928e-03 -2.2912095150457660e-04
      1.2200760921558225e-02 -1.2356797625069889e-03
      4.7279147900681634e-03 -1.0026083950742296e-02
      1.8123265201336447e-02 1.1414740274945141e-02
      1.0445561318748174e-02 1.0650987139739759e-02
      1.2796630650157190e-02 -1.7627156192017348e-02
      6.4787430723180946e-03 2.8432609429091368e-02
      1.3787995594513717e-02 1.1873214109453490e-02
      1.0824211380464960e-02 -1.4034943602081674e-02
      7.2474588591287404e-03 1.1414741123281337e-03
      6.9170446866245617e-03 1.3050205483116402e-02
      6.7815341439281113e-03 1.1510449673126666e-02
      3.2739023370781618e-03 1.8937036546714657e-02
      2.0424820887628300e-03 7.0058836381145673e-03
      -3.7991476823426738e-03 2.2877717386942949e-02
      -1.0850979525877085e-02 -1.6459352840198619e-03
      -2.5471074719160727e-02 -1.4427640716354110e-02
      -9.7931731016725442e-03 -2.3490106026276585e-02
      1.2116921396899492e-02 1.7474427585079506e-02
      -2.0251833466035443e-02 1.2281568199643772e-02
      5.3727130309492023e-04 -2.3302764092390550e-02
      -7.7815485382533890e-03 -7.9386497989097915e-03
      -1.4568638781562173e-02 -2.8392529184382436e-02
      -1.1857716851509425e-02 2.6452536284212896e-03
      9.5901414602061353e-03 -2.0661014863397678e-02
      8.9235767344349841e-03 5.8903628868816954e-03
      2.1571300383728571e-03 -1.4787891725745532e-02
      -8.1520672037009769e-03 -1.6932877455909396e-02
      1.0094721211972928e-02 1.5867832652805721e-02
      1.1593973680926404e-02 1.9570097867595830e-02
      2.8223119103628493e-02 -8.0522892195320408e-03
      4.5929340190324864e-03 4.0772622798053486e-02
      1.7482213550870884e-02 -2.2029590988234221e-03
      2.6693048073266095e-02 -2.9195636174461606e-03
      1.8719361886552845e-02 1.1348040907261051e-02
      1.0349005381862425e-02 1.2490223245491089e-02
      2.0105461580052632e-02 1.9874488992849878e-03
      8.2859259975609847e-03 9.0770098101122139e-03
      -3.7841984984609638e-03 -1.1628253293868109e-02
      -5.8300496561625847e-03 1.4712084137676655e-02
      -7.2876987003615383e-03 -4.1960896095072408e-04
      -2.3487246520606953e-02 -1.8538535043808257e-02
      -5.0883978876571194e-03 -1.6469189396132684e-02
      9.2696352155747994e-03 1.2802613804349711e-02
      -1.1862889893588434e-02 3.7306715962184102e-03
      2.8595523834111830e-03 -1.8792147643896091e-02
      -6.5921922096403721e-03 -1.0242777117466290e-02
      -7.2183516111138536e-03 -2.8979235380068160e-02
      -4.0094601731347872e-03 -6.6071997252901823e-03
      5.8881427820210571e-03 -1.8533018610215671e-02
      6.5998564517874203e-03 9.8069857065501490e-03
      3.9337439385241340e-04 -1.3328977309095925e-02
      1.6920358869169858e-03 -1.0118007722676516e-02
      9.1980098118356474e-03 4.4969146805425731e-03
      4.1204875336175780e-03 1.1850477342035391e-02
      1.1892950276190299e-02 -4.5295424731842992e-03
      4.4090741587590413e-03 4.0720402277666372e-02
      8.1664939026766387e-03 2.9710225401772795e-03
      1.8316436177284446e-02 6.6567442347924472e-04
      5.8340230788072253e-03 2.2778430065606716e-03
      7.5823734106238213e-03 1.2839250353143334e-02
      1.1555549449833334e-02 2.1117245080253823e-03
      7.1839298352540260e-03 1.3807540254134217e-02
      -1.3949427785846649e-02 -8.1883662155796174e-03
      -1.9521224846036926e-03 1.0238769766664439e-02
      -4.9860832499661958e-03 1.0964823488856476e-03
      -2.1467333422027002e-02 -1.9202896925416369e-02
      -1.3418444236066853e-02 -1.4772811395161472e-02
      3.6430204321412554e-03 1.1105511454736490e-02
      -6.0361588194385940e-03 1.7192257346139324e-03
      -1.3225756769233972e-04 -2.3322146723920096e-02
      -1.2564587307367739e-02 -3.8225370233004596e-03
      -1.2433302882527373e-02 -3.4100708180792624e-02
      4.0682447015383460e-03 -2.9659227977810124e-03
      9.1764250638390870e-03 -2.0235705443632276e-02
      1.2830522817588577e-02 1.8717290120100507e-02
      -4.8835924913067852e-03 -1.3280579659199321e-02
      -8.2331429204012645e-03 -4.8079827366273309e-03
      8.2463447096756994e-03 2.4961915378276505e-03
      9.1063148020179199e-03 1.5335836622255117e-02
      1.7685987572550636e-02 -8.0569821504127993e-03
      1.2597104554354839e-02 4.1693183768047169e-02
      1.2062791621017248e-02 2.8043396953463199e-03
      2.2946458945431413e-02 1.6247733359489006e-03
      3.4323248937883125e-03 3.5214286327176414e-03
      1.4346986379371747e-02 1.5823239723278759e-02
      9.4860422688319377e-03 -5.3506287255685970e-03
      3.4042954465413502e-03 4.6757127835978683e-03
      -1.8225706251619258e-02 -9.9528945073001831e-03
      -5.1854585419465905e-03 9.2343983878736789e-03
      -2.1522703846245566e-03 -9.6954614361183583e-05
      -2.0720618894718219e-02 -2.4041056073070766e-02
      -1.2069918021589030e-02 -1.0753320732502998e-02
      4.3848514367770854e-05 9.6432616778679928e-03
      -6.0122620529346393e-03 -1.1247916249331278e-03
      6.4583144009667810e-04 -2.6571924226922755e-02
      -1.3037309189600627e-02 -7.4900715321333782e-03
      -1.2593794746005865e-02 -3.4882772701170357e-02
      6.9259019258791641e-04 5.9829586519020274e-05
      1.2787619513360491e-02 -1.9111821922458586e-02
      1.5694708557372320e-02 2.3227546113603319e-02
      -3.7526294363294534e-03 -1.1459934143709324e-02
      -8.2994694834437350e-03 -6.5410342831926796e-03
      6.8909082934506113e-03 3.7794189507889060e-03
      4.5960505455762040e-03 1.1272143190420036e-02
      1.3827653450264852e-02 -4.9642460623506189e-03
      1.4195627664542755e-02 4.2813138714388681e-02
      1.3539049787588114e-02 5.1618329102752413e-03
      2.6293784130972640e-02 6.6712853407854312e-04
      -1.3054541824526170e-06 -1.9718242632524759e-03
      1.5327763289614731e-02 1.5808212042877939e-02
      1.2083439451227000e-02 -3.3090500976838866e-03
      5.1405424977484463e-03 6.5022102469442806e-03
      -2.6990583959101665e-02 -1.1054400844499213e-02
      -3.2675629292336009e-04 1.9159433331428384e-03
      1.3686553929359736e-02 5.2354470906677934e-03
      -2.5253607030990759e-02 -2.3846453490555797e-02
      -2.2384632193727307e-02 4.0461921498192374e-03
      -4.9946699682491987e-04 -6.9871496988225031e-03
      5.0612191910529240e-03 3.3990477688317787e-03
      -1.4247759609921657e-02 -1.5753857371632034e-02
      -2.7562155277287902e-02 4.6648901175274891e-03
      -1.2219545499410560e-02 -2.0114256074122736e-02
      -8.5823554533051918e-03 1.8543666869720653e-02
      7.6389152650912116e-03 -1.2084769277942650e-02
      -5.0002975423632673e-05 3.0806252193485362e-02
      1.5870917370942747e-02 5.7540086786709004e-03
      8.4052987298390523e-04 -6.2190114604635761e-03
      1.3196641098647920e-02 -4.9539947856503449e-04
      9.2970555809797663e-03 6.3929130014910296e-03
      -1.6974982748429736e-04 -1.2831648787149071e-02
      3.0812427347068863e-02 2.5986297473612009e-02
      1.3263497338580125e-02 1.5524775208006490e-02
      1.6199822968115157e-02 -1.8880780517123080e-02
      -6.2070122366290979e-03 -1.6872257202172818e-02
      1.6491611259853559e-02 1.9403399316509983e-02
      5.0441416450214289e-03 8.0783048893408402e-03
      9.1400574103692070e-04 1.1915835009810000e-02
      -1.0578850527754554e-02 3.6259367061794020e-03
      1.0714854212393189e-02 -1.3031459549450142e-02
      9.8347147367568531e-03 1.5719137911110084e-03
      -9.4603568552710238e-03 -1.1179096992243577e-02
      -7.0808983428948015e-03 4.9729403688257090e-03
      -8.9982977526495975e-04 -5.3173376317533182e-03
      8.8995544566054258e-03 1.1618409679484811e-03
      -2.0418613437545655e-03 -1.7595789322026861e-02
      -1.8868092484985898e-02 -6.7306122248359393e-03
      4.9301208683122499e-03 -1.4691666328975858e-02
      3.2565560910334003e-04 5.9248230231726305e-03
      1.1454060937077473e-02 -3.1874548252392998e-03
      -3.4097506756342291e-03 2.7627397593408137e-02
      9.1861817010061436e-03 1.1962049907033812e-02
      8.0222231956490805e-03 5.1008252762333268e-03
      -2.7098833002380074e-03 -1.9569384632309721e-02
      6.4083070068592591e-03 -3.4041699248893100e-03
      -8.8400774698033473e-03 1.7852195623058986e-04
      2.2798170521269676e-02 1.5888394221912239e-02
      1.0862761550437959e-02 9.0168859372217070e-03
      7.1238056888458835e-03 -9.9547049625661275e-03
      -4.0173216009882669e-03 -1.7546114361895578e-02
      1.4470713969527586e-02 5.2442028803494469e-03
      -4.3773948957885151e-03 -1.3532016582308185e-04
      5.2486215856089305e-03 -7.6192602145592721e-04
      -6.3639641181587880e-03 -2.8170442683266420e-03
      -4.0461350133283349e-04 -1.6109697512447358e-03
      1.0294772141041927e-02 -9.9362821249118615e-03
      -1.6757105355302136e-02 4.4705285669709958e-03
      4.9566718644791603e-03 4.3786161030892170e-03
      1.5351988793723946e-02 -4.7657567596564917e-03
      5.0291601646776955e-03 7.6929355094691185e-03
      6.3007488496381178e-03 -1.9322990630259836e-02
      -1.1934463494674856e-02 -1.6039548855749586e-02
      4.2223707910799702e-03 -5.0574381650446932e-03
      -1.1582868577318809e-02 4.4363643448174202e-03
      1.1329965265817612e-02 3.3847847656678356e-03
      -1.2517551630377434e-02 1.6948339840636133e-02
      1.2769600405069827e-02 9.1629054176524550e-03
      7.2028394081417582e-03 -1.3044765431755026e-02
      -8.2811137255778245e-04 -4.8392228242262426e-03
      7.0590862847451034e-03 -7.8570296079705851e-03
      3.5215092989169020e-03 9.2665554083320577e-04
      1.3222621211142016e-02 6.4095117661978488e-03
      1.0429408319821346e-02 -1.7404456456720993e-03
      1.4143456829698068e-02 -1.2814261066675591e-02
      2.3276399656138188e-03 -1.4783909269866335e-02
      1.1125096330366558e-02 4.1302397190077569e-03
      9.9459272353307118e-03 7.5620866742611452e-03
      1.3266978961106433e-02 2.5937615172393238e-03
      1.0563878883162252e-02 -3.4731271482105423e-03
      1.1112569474363482e-02 -1.8640584768058858e-02
      6.9204024644695912e-03 -1.7765843268881257e-02
      3.2643283841544041e-04 -1.4655922263652503e-03
      7.0420840726943320e-03 2.2158649989722236e-03
      1.2210982089048215e-02 -4.3751945026091980e-03
      1.4334088211106875e-02 3.6191738052529653e-03
      1.2394545086883079e-02 -3.1185921041687530e-02
      -1.8398417820880926e-02 -2.0435715567009852e-02
      8.0646744377446400e-03 -9.5087300920906250e-03
      -2.0190252883855032e-03 3.1009850664653303e-03
      1.8627279973056621e-02 1.7017536112873552e-03
      6.8434505957889521e-03 3.7047037971456163e-02
      8.6051263384416005e-03 7.0815434380380564e-03
      1.1560679707294246e-03 -2.6896734690126838e-03
      -1.9550010194786631e-02 -2.0316009441393321e-02
      2.8614588979736289e-03 -9.1118161779938454e-03
      -7.5580456586125196e-04 1.1540511875174153e-02
      2.9699893644113424e-02 9.6278910281811913e-03
      1.0773702280667411e-02 -1.3804750529618584e-02
      1.9722593974736247e-02 1.7366884491728980e-03
      5.2834442814150197e-03 -1.4827792356574217e-02
      1.5083857610950402e-02 -2.5524345080142380e-03
      4.1748763177818600e-03 -2.4361915950405432e-03
      1.4468852291159701e-02 -1.1989358572702977e-02
      -5.5063320577703953e-03 -1.7270328099972816e-02
      -2.2943319432071241e-03 1.3406051859461074e-02
      -3.9560077972486370e-03 -6.3806203406805871e-04
      -3.3814466886708069e-02 -5.0169235192293691e-03
      2.7273706769892414e-03 -4.6276096432033842e-03
      2.3380265052117478e-02 2.1640642844329280e-03
      -1.5538829404842903e-02 4.4834519408466439e-03
      2.6902787543630442e-03 -9.7305757550754674e-03
      1.1084614111593935e-03 -1.0275899634903222e-02
      6.9761376678997887e-03 -2.0898559892008894e-02
      -1.2004974856725451e-02 -6.9357380124565873e-03
      4.5257538721058515e-03 -7.6061714602369945e-03
      -1.7530042126214687e-02 4.7992410340304270e-03
      6.1872951446743417e-03 -1.3630869361208836e-04
      1.7039859827189932e-02 -1.7877964287190469e-02
      1.4697678022390703e-02 9.4014835866345139e-03
      2.6010813958054772e-03 1.3532173254653720e-03
      -1.7120484405356135e-03 -9.1204039349871372e-03
      -1.5715000524153041e-03 1.8287046750781990e-02
      5.3291936484749416e-03 3.1671460192302667e-03
      6.0573750027207119e-03 -8.8558079830485907e-03
      4.5252166369374666e-03 -7.5709396795047709e-05
      1.0061619537972155e-03 1.4724609935721916e-02
      1.2429732197824096e-02 7.4069853894037398e-03
      1.0891665757220800e-02 2.5891078842163292e-02
      3.3173078780899482e-03 3.0563050902690987e-03
      -6.1127557840284282e-03 1.2683159443334152e-02
      -7.2882556234741850e-03 3.5157183949955045e-04
      -3.1796594473389936e-02 -1.4755209599773465e-02
      4.7055460201170431e-03 -1.0974436164309697e-02
      1.4509672528895554e-02 1.1135248899829055e-02
      -1.2995145927241150e-02 1.9221921983826737e-04
      5.9646053032154462e-03 -1.4958746363427091e-02
      4.5893441477899300e-03 -9.0571772077651692e-03
      5.6669268036274615e-03 -2.6677889847878330e-02
      -2.9955425506328417e-03 -1.5869824395841194e-02
      5.7730588644653415e-03 -9.5171131297052090e-03
      -3.5080900576203106e-03 6.3646223827606100e-03
      -2.7891698342397044e-03 -1.0666874086479006e-02
      9.9518820211470654e-03 -8.4488365513185459e-03
      1.6056585465158354e-02 2.5407840328886058e-03
      -1.3898759835418246e-03 7.1310218393409930e-03
      -1.1091666503142473e-03 -4.6902201483918025e-03
      -1.4668114738497667e-03 2.9616161553443019e-02
      -1.4169249015069925e-03 2.7404124718627405e-03
      9.4260088048270085e-03 1.1063179977570234e-03
      -2.3162006937275264e-03 4.3782736150864022e-03
      3.5544998401145296e-03 1.2285210650679010e-02
      1.8337227774154305e-03 2.8513326024108862e-03
      1.0249265250115680e-02 1.8111598382962318e-02
      -9.3725983179271197e-03 -3.8471822731145121e-03
      6.6310054162346385e-03 -1.3182109986665384e-02
      7.0849455688211278e-03 5.5047075303406951e-03
      -1.1754186198226496e-02 -2.6324292897594213e-02
      -1.4146516283408609e-02 6.1737624384424041e-03
      -5.3513200824865572e-03 -6.7157361993675098e-04
      1.1019846156749995e-02 -5.8986902511484274e-04
      -1.3283614746506314e-03 -2.2767414495020750e-02
      -1.9358775423786251e-02 -2.9547514396983604e-03
      -2.9128327267159489e-03 -2.4398863014313748e-02
      1.4194936557378194e-02 3.1018876086757984e-03
      1.7614180400669269e-02 -1.1416781571261220e-02
      8.1508577208206714e-03 3.3713190663778800e-02
      1.7260479064556687e-04 -7.5018424667039221e-04
      3.6096428383750051e-04 1.2274425276681423e-02
      -5.8230757054866539e-03 -2.1397020398133123e-02
      8.7240727836116524e-03 6.6695126788162288e-03
      -3.2325187097547920e-03 9.8915742575434977e-05
      2.7462068957295544e-02 2.7928568145074103e-02
      7.7707616268455227e-03 4.5104103770253956e-03
      9.5596734655020894e-03 -1.8831632856948575e-04
      -4.0737367955855633e-03 -9.3597590154344233e-03
      1.8970415859142241e-02 7.0957288389901551e-03
      -2.0184624863497608e-03 -8.1365237452349238e-03
      1.9686817271511894e-03 3.3124069682572435e-04
      -2.2931010569523701e-02 -9.8743589501307360e-03
      4.0011255315026473e-02 -2.8213466829387787e-02
      6.5354250216249597e-03 2.7600228420987739e-02
      1.2288122481778983e-02 -2.9977602437182203e-02
      -1.2970927213363681e-02 -5.9022348652185645e-03
      -1.2899406286390941e-02 -6.2802193783418137e-03
      1.6890340178047660e-02 2.6364022970023184e-02
      -1.5381096356693799e-03 -2.5239919823319270e-02
      -3.4993007642338980e-02 1.1638157400603481e-02
      2.2661053117444554e-03 -2.3108375936615737e-02
      2.9845341093485703e-02 1.7676143133992100e-02
      3.3521527923265355e-02 -1.0441068476693630e-02
      -1.5526112587508675e-03 2.4538792825964481e-02
      -5.3627518967313496e-03 7.8226149212904262e-03
      1.2934726956004753e-02 5.2380589015622266e-02
      -2.8365560595578466e-02 -3.8107405411433232e-02
      3.1765152109536128e-02 1.1377282954614740e-02
      5.3896087440815626e-03 1.4436628386230178e-02
      4.8481536456148160e-02 6.2365815231297181e-03
      2.4999448884803196e-02 -3.1997539790106521e-03
      -1.1323399669943317e-02 -1.1317955565586834e-02
      2.1188902541687361e-02 6.3812292485965465e-03
      1.3647820759690817e-02 -1.0240197236091368e-02
      -1.4933300963079330e-02 -2.2194535669439484e-02
      -4.3416251231275368e-03 -4.9767098888236936e-03
      -3.1918793174678935e-03 9.8801745343506369e-03
      -1.1068247743875803e-02 1.9680138966684396e-02
      -5.7423824524919561e-03 -8.1955217254786276e-03
      -2.9077243420705459e-02 -5.7806481011370104e-03
      -2.2231591603632554e-03 1.4748687499226258e-03
      1.2690126993599832e-02 3.7067253269604987e-03
      -2.0187918820582320e-02 -6.7724479245984109e-03
      4.2431341644793502e-03 -8.3598163613544767e-03
      7.6350266347388843e-03 2.2338183851930717e-03
      -1.4689705474406149e-02 -3.1882381129272726e-02
      -1.2963616580005600e-02 -1.7670092408705724e-02
      5.6864297077923115e-04 -1.2210833779096235e-02
      -1.6583002171379063e-02 -5.2146873424003502e-03
      1.5994971425529263e-04 -4.4554614446176092e-03
      -4.3791246739146141e-03 -1.1500254795237421e-02
      3.4336961635521350e-02 1.5247657993919238e-02
      -3.1432909816273857e-03 1.1618205531946486e-02
      7.8203975229132316e-03 -8.3266252318083874e-03
      -1.1091864127626670e-02 4.3718898932993196e-02
      1.5872020583409968e-03 5.9759361265289482e-03
      7.4781855131177367e-03 3.6089996754774577e-03
      -4.2749934803304138e-03 6.3845337915963982e-03
      1.0994689332735914e-02 9.7544421440259148e-03
      1.0989606329221755e-02 3.0508730550914496e-03
      7.3700340421085616e-03 1.2608355568310293e-02
      -2.9712317835322529e-03 -9.2982314398433186e-03
      8.4709111905315396e-03 -1.1617394442018392e-02
      1.5934651610904672e-03 6.8727741091060644e-03
      -4.5682183390059325e-03 -1.7156999571113610e-02
      -1.7806688331760412e-02 -6.4609898699418819e-03
      -3.2865503629619956e-03 3.3917065506952350e-03
      -1.5235655004063110e-03 -5.9503493410181510e-03
      -4.2563095423829604e-03 -8.2295737891880730e-03
      -2.0032210419455469e-02 -1.7529538589334899e-04
      -1.5761106302107895e-02 -1.1522365595797232e-02
      1.5812384962693819e-02 6.1807061364430394e-03
      5.2722147668281694e-03 -1.2434840984419460e-02
      1.6922796757111142e-02 1.7659840504442574e-02
      2.7414702377959511e-03 -7.1247346461252555e-03
      -1.0738074731306568e-02 1.4395821805016348e-02
      2.4670184032305454e-03 -1.0606203869656938e-02
      3.5009211922750862e-03 1.2364520782004201e-02
      1.3912799342054270e-02 -3.7028872606455119e-03
      1.6440776920389283e-02 1.0869577408865402e-02
      7.0645642563903661e-03 1.3382421563627065e-03
      4.3383893279666085e-03 -3.4902759154201118e-03
      1.8395437531376919e-03 1.6035520051289303e-03
      1.2936361211978033e-02 7.7334451579629537e-03
      1.3638883754905993e-02 -8.2422996958306689e-03
      3.3028867924213478e-03 -3.2837776518871526e-03
      -1.7571288422773269e-02 -1.2320526493854093e-02
      4.6205912442132653e-03 4.2441684321765502e-03
      8.1119523953513406e-03 8.8229893410667407e-03
      -1.5747097171744193e-02 -1.3844376606101285e-03
      -9.6185224178139874e-03 1.8922297535877144e-03
      -1.9596499294719117e-03 -4.6775279077900956e-03
      -4.0411009374360972e-03 -7.0639125003190088e-03
      -8.6601983225849388e-03 5.7817507282474688e-03
      -4.6970586334082439e-03 1.3797798390051026e-02
      1.5603657555616625e-03 -4.0936967458548214e-03
      -7.2006397448699921e-03 7.0403889326039202e-03
      -6.8521008391205375e-04 -1.1307056022547323e-03
      -1.5281979037651197e-02 -2.4801989691800334e-03
      4.0434386838556361e-03 1.9734885574457291e-03
      8.2860259954359809e-03 1.8699879986952470e-03
      2.1555987381078674e-02 7.9454801560224324e-03
      1.6189115147099752e-03 1.3080958824426159e-03
      -2.2008853586288472e-03 -1.0799880612508079e-02
      -2.4986361801344493e-03 -7.0448280743124021e-03
      -3.4641872196875855e-03 1.7423325546452546e-02
      -1.3467562594860405e-02 -1.3265941024525852e-02
      -7.4388097921912781e-03 -6.0521815175012244e-03
      -2.2150012773963896e-03 9.9399958212481095e-03
      -8.6628707460664430e-04 1.4911582977368968e-04
      -2.6477795785349164e-03 1.7518176544107904e-02
      2.8823722582145606e-03 1.0973972060866000e-02
      -1.4429631701719332e-03 -1.1744649055410289e-03
      1.1372131763843442e-03 2.5459648625002825e-04
      -1.3895263655931300e-02 2.5793794389419580e-03
      1.0798851306320874e-03 -5.4943587333514043e-03
      7.8088942151491904e-03 1.2001469927130333e-03
      -8.4552388287696956e-03 -1.9375148607352255e-03
      1.9737821681028410e-03 4.3706482929210403e-03
      4.3852294694917155e-03 -3.2231496892729272e-03
      -8.1504438988240816e-05 -1.8215573531968601e-03
      2.6220577735626589e-03 4.0263642048741170e-03
      -2.2565800305216700e-03 -5.1393201653984260e-03
      3.3814028539306161e-06 -3.6080756175728649e-03
      2.6233945182763544e-03 -8.9216379212095180e-03
      -3.0773865786399377e-03 -3.3471528634672247e-03
      9.8638607158994963e-03 -7.6076363874032233e-03
      1.1115859209211154e-03 7.8887297716265375e-03
      8.1758838879162909e-03 -4.8437146808254913e-03
      -4.0354021683275372e-03 8.3716304566302212e-03
      2.6907162650122874e-03 1.7441148427809645e-03
      -6.3022667569063336e-03 -3.5774195778989337e-03
      3.6352189892573973e-03 3.0754843784179696e-03
      -1.8569642442269134e-03 9.1683505474054079e-03
      1.7455195656989910e-02 -1.2494635768776317e-03
      9.7664370110686887e-03 1.1064390042049161e-02
      1.0161949114953396e-02 -1.0307331491403707e-02
      9.2587808439941832e-04 8.0078132513876320e-03
      -1.8891697098917107e-03 7.3838115301894580e-03
      -1.1655021132601686e-02 3.7925070916999755e-04
      5.9267125657004264e-03 -8.4922235610163013e-04
      1.2033230893800916e-02 5.2296731654470024e-05
      -1.4383678777083905e-02 -2.7990524986610393e-03
      5.6875263187993385e-03 1.3807560011790222e-02
      8.8571573127847487e-03 -5.5246396679669661e-03
      8.9518911661244701e-03 2.4489102188951684e-03
      4.3871533850160793e-03 -3.9586243889956274e-03
      -7.0503846666406123e-03 -4.4408514110663355e-03
      -1.0466124278803095e-02 -5.6514700537233040e-03
      4.4870058737543073e-03 -4.1720286424705606e-03
      9.6680474384322913e-03 -4.2004506126477213e-03
      9.5807009980336220e-03 -6.7534954302660277e-03
      -3.7518788054793834e-03 -2.7579346800060711e-03
      3.7107236148800973e-03 -3.0952831810015743e-03
      -1.5903581654329060e-02 -1.0526923911753890e-02
      -1.1302547816807866e-02 5.6733668518471484e-03
      -1.4068599707735845e-02 -6.4323313387243137e-03
      1.1155451274161793e-03 6.1046371954392564e-03
      -1.0411895547958169e-02 8.1672662610079022e-03
      1.1336940443500945e-02 5.5078676183536682e-03
      6.6919756637811518e-03 1.2146107990362472e-02
      1.6708898553780140e-02 -4.5101951686934314e-03
      3.2925907422750352e-04 4.0262784072325952e-03
      3.3934487870759715e-03 2.3138593083505784e-04
      -5.6535759026910028e-03 -2.3169667447935226e-03
      -5.6056173170217927e-03 2.7966750302221405e-03
      1.7881816700966112e-03 -2.8475966775615056e-03
      -1.4497040378882776e-03 -5.3317008459369845e-03
      -2.7878368950280718e-03 4.5082918880810221e-03
      1.6080331874372869e-03 -2.9159574403069704e-04
      3.8102163530698767e-03 3.1753279265910110e-04
      2.5900297340621103e-03 4.8044326037827113e-03
      -3.8554619010331584e-03 -2.9088295415105087e-03
      -4.4651135409845000e-03 3.1995801121202459e-03
      4.4140977070592051e-03 -1.6004590752957311e-03
      6.6024580848621467e-04 -1.7626747838626472e-03
      2.6662206551643980e-03 -5.5349267935164009e-03
      -4.3540821797398857e-03 6.5109260584319444e-04
      9.1066580007725818e-03 -2.9044195524244804e-03
      -6.0598875798132329e-03 -4.7465550502740431e-03
      -8.2502223781757457e-03 4.9244310602352976e-03
      -4.8867783873089883e-03 1.5717020612653521e-04
      1.2797360643759402e-03 -1.6605502138940227e-03
      -2.0546812622129229e-03 3.0205486851882834e-03
      5.1525213460757143e-03 3.7161355423105643e-03
      4.6566925861903617e-04 6.3370683074209355e-03
      7.4767624672971754e-03 -5.2307380877395244e-03
      7.9086523465433901e-04 1.2629782133363472e-03
      1.8915700655142689e-03 -1.5240959669733647e-03
      4.3090891542998109e-04 -1.7109391349886636e-03
      1.2882995001405933e-03 -5.7929359172451513e-05
      1.4588504875301411e-03 1.3565482389835285e-03
      9.3118963264189885e-04 -8.2217366003593697e-04
      1.9655426896794271e-03 -2.3173686900733204e-04
      1.2654121586029886e-03 1.8834364935949367e-03
      -5.2911373458166980e-04 1.3492184553135689e-03
      1.8183249421791239e-03 -1.5483148918348259e-03
      -1.9059752015577567e-03 1.3751689914182613e-03
      -1.9279420291745681e-03 -1.0837456046094826e-03
      -2.4930568897044559e-04 8.5691766274634327e-04
      -1.1492857106300948e-03 1.5476436925557250e-03
      -1.3362383952634719e-03 2.0405568642159290e-04
      3.7798465830855517e-04 4.4571966138757237e-05
      7.1332674511215765e-04 -1.1499493215746485e-04
      -1.0803929461934429e-03 -1.6961166912915113e-03
      3.1873905395356737e-04 1.1620152762963055e-03
      -1.3700981624414619e-03 1.0136023670514057e-03
      -1.8059646212228166e-03 1.9741566921478546e-03
      2.8769261801244589e-04 -1.2073581673317363e-03
      -1.6089634899120219e-03 4.1525974018371409e-04
      1.2678727658659676e-03 -2.0018070857985596e-03
      1.3108576506976183e-03 -1.4644535512202915e-03
      1.4148580178166132e-03 1.4934156046603466e-03
      8.7806324493271679e-04 -1.7807846803715513e-03
      -6.5020657404891383e-04 8.6361683690046028e-04
      1.2860237772375940e-03 -1.2914235240764570e-03
      -9.0865967631566203e-04 8.0101933442414640e-04
      6.4746628459193907e-04 1.3041767583904140e-03
      3.7464731145906067e-04 4.6743411435133680e-04
      3.8738103851528872e-05 3.4199292924421592e-04
      5.0529621637860245e-04 1.7982113051500843e-03
      -3.8003109677554913e-04 6.1894088113769840e-04
      -1.4966038647240304e-03 9.9546244034471706e-05
      1.8475876331844679e-03 9.7036967143137426e-04
      3.3566531974385153e-04 -9.2381474308394238e-04
      1.3567741961834176e-03 -1.5217510251495488e-04
      -1.2985731352105475e-04 1.9115207552622782e-03
      -5.4299884244922360e-04 8.5349239201902571e-04
      7.5237630547373661e-04 -1.8803871115824658e-03
      -9.3146213032092558e-04 -6.8523248158151168e-04
      -1.2965001607919266e-03 2.5144147846865984e-06
      -2.9002027798295820e-04 3.9583356013538746e-04
      -1.5349065136158616e-03 -7.4750921913873444e-04
      -1.4885771718997636e-03 -1.9969019870371171e-03
      -6.4906902631356109e-04 2.0246044928276638e-03
      8.4475907502167902e-05 1.6635925935961462e-03
      -4.9077974233042391e-04 -6.4450378176188119e-04
      -2.0271828220836782e-03 -2.2859782919726828e-04
      -5.7888106229936375e-04 -7.1546221797526744e-04
      -2.0572340904949898e-03 -1.4127428444936881e-03
      -7.9113249819386144e-04 9.0224638657757574e-05
      -1.8587330000120474e-03 3.0107157722750096e-04
      -9.9466987287294818e-05 -4.6771678382702994e-04
      1.0120766072556208e-03 2.2649210807847533e-05
      1.4235952146261584e-03 4.3381562603027893e-04
      1.9305570238952515e-03 1.3486513784992569e-03
      1.6449967379512135e-03 3.4784624371439959e-04
      8.6398445169242016e-04 7.1778318779901662e-05
      -1.7073051551838839e-03 -6.2302591038692961e-04
      4.1506610607075327e-04 1.0586376161087182e-03
      -1.6825256448285456e-03 -9.5219760055978572e-04
      -1.2589186353735118e-03 3.6136125450874089e-04
